{"learner":{"attributes":{},"feature_names":["Gender","Age","Weight","Duration","Heart_Rate","Body_Temp"],"feature_types":["int","int","float","float","float","float"],"gradient_booster":{"model":{"gbtree_model_param":{"num_parallel_tree":"1","num_trees":"100"},"iteration_indptr":[0,1,2,3,4,5,6,7,8,9,10,11,12,13,14,15,16,17,18,19,20,21,22,23,24,25,26,27,28,29,30,31,32,33,34,35,36,37,38,39,40,41,42,43,44,45,46,47,48,49,50,51,52,53,54,55,56,57,58,59,60,61,62,63,64,65,66,67,68,69,70,71,72,73,74,75,76,77,78,79,80,81,82,83,84,85,86,87,88,89,90,91,92,93,94,95,96,97,98,99,100],"tree_info":[0,0,0,0,0,0,0,0,0,0,0,0,0,0,0,0,0,0,0,0,0,0,0,0,0,0,0,0,0,0,0,0,0,0,0,0,0,0,0,0,0,0,0,0,0,0,0,0,0,0,0,0,0,0,0,0,0,0,0,0,0,0,0,0,0,0,0,0,0,0,0,0,0,0,0,0,0,0,0,0,0,0,0,0,0,0,0,0,0,0,0,0,0,0,0,0,0,0,0,0],"trees":[{"base_weights":[3.7838643E-6,-4.5472855E1,6.0357132E1,-6.8271484E1,-2.225766E1,2.9704613E1,8.7681625E1,-7.7412125E1,-5.813118E1,-3.530356E1,-9.305885E0,1.6852861E1,4.3416306E1,7.230428E1,1.0856628E2,-2.4478888E1,-2.1700811E1,-6.3893375E1,-5.383031E1,-4.1724068E1,-2.784842E1,-1.7208672E1,2.0260737E0,9.710043E0,2.991007E1,3.1142736E1,5.154298E1,6.1115253E1,8.690823E1,9.8329926E1,1.2483313E2,-6.65474E1,-5.88924E1,-5.9497726E1,-4.938416E1,-4.6047516E1,-3.45269E1,-3.3991756E1,-2.3525137E1,-2.3271791E1,-7.358656E0,-4.709261E0,1.0294481E1,3.2027426E0,2.0848543E1,1.9033285E1,3.941574E1,2.4525185E1,4.349661E1,4.2566456E1,6.320534E1,4.771152E1,6.9772934E1,7.572933E1,1.0168079E2,8.1071396E1,1.0708046E2,1.07326805E2,1.4050276E2,-1.8951345E1,-2.0941273E1,-1.8656054E1,-1.628338E1,-1.862218E1,-1.6655697E1,-1.5811492E1,-1.3410626E1,-1.2415822E1,-1.5115829E1,-1.1712855E1,-8.250835E0,-1.0986201E1,-7.4536767E0,-8.313693E0,-4.93559E0,-9.570993E0,-5.791501E0,-4.4039207E0,-7.1786726E-1,-3.6278384E0,4.4656876E-3,1.6234076E0,6.3155684E0,-1.1894512E0,3.0579839E0,3.3076308E0,7.31114E0,3.722761E0,7.5339394E0,9.830821E0,1.4057702E1,6.0564547E0,9.199183E0,1.0030323E1,1.5446179E1,1.0193047E1,1.5196543E1,1.6017694E1,2.2184647E1,1.0086997E1,1.5869409E1,1.8013344E1,2.3859467E1,1.9788216E1,2.5714903E1,2.797032E1,3.557103E1,2.244868E1,2.7879929E1,2.9821474E1,3.5604065E1,2.6474323E1,3.505474E1,3.6004646E1,4.5376198E1],"categories":[],"categories_nodes":[],"categories_segments":[],"categories_sizes":[],"default_left":[0,0,0,0,0,0,0,0,0,0,0,0,0,0,0,0,0,0,0,0,0,0,0,0,0,0,0,0,0,0,0,0,0,0,0,0,0,0,0,0,0,0,0,0,0,0,0,0,0,0,0,0,0,0,0,0,0,0,0,0,0,0,0,0,0,0,0,0,0,0,0,0,0,0,0,0,0,0,0,0,0,0,0,0,0,0,0,0,0,0,0,0,0,0,0,0,0,0,0,0,0,0,0,0,0,0,0,0,0,0,0,0,0,0,0],"id":0,"left_children":[1,3,5,7,9,11,13,15,17,19,21,23,25,27,29,-1,-1,31,33,35,37,39,41,43,45,47,49,51,53,55,57,59,61,63,65,67,69,71,73,75,77,79,81,83,85,87,89,91,93,95,97,99,101,103,105,107,109,111,113,-1,-1,-1,-1,-1,-1,-1,-1,-1,-1,-1,-1,-1,-1,-1,-1,-1,-1,-1,-1,-1,-1,-1,-1,-1,-1,-1,-1,-1,-1,-1,-1,-1,-1,-1,-1,-1,-1,-1,-1,-1,-1,-1,-1,-1,-1,-1,-1,-1,-1,-1,-1,-1,-1,-1,-1],"loss_changes":[3.2940824E7,3.621366E6,4.316716E6,3.15555E5,5.7297825E5,4.278335E5,8.67608E5,3.2605E4,3.72285E4,7.973125E4,1.5263497E5,1.1694403E5,1.1569275E5,2.51723E5,1.79882E5,0E0,0E0,5.31875E3,2.089925E4,2.6601625E4,2.0049438E4,5.978947E4,3.9087516E4,5.8933234E4,4.5155406E4,3.7438625E4,7.1219125E4,1.004155E5,1.045955E5,9.8997E4,1.061685E5,5.05625E2,4.251875E2,7.665E2,5.977875E3,9.300875E3,9.8380625E3,6.8324375E3,1.3286172E4,2.0646781E4,1.39251E4,1.3499086E4,1.643296E4,2.584461E4,1.011018E4,8.105508E3,1.01395E4,7.607703E3,1.1384344E4,2.6209375E4,2.8206625E4,2.4087688E4,4.6585E4,3.2492E4,3.031475E4,1.1113125E4,3.0049E4,2.83855E4,3.2508E4,0E0,0E0,0E0,0E0,0E0,0E0,0E0,0E0,0E0,0E0,0E0,0E0,0E0,0E0,0E0,0E0,0E0,0E0,0E0,0E0,0E0,0E0,0E0,0E0,0E0,0E0,0E0,0E0,0E0,0E0,0E0,0E0,0E0,0E0,0E0,0E0,0E0,0E0,0E0,0E0,0E0,0E0,0E0,0E0,0E0,0E0,0E0,0E0,0E0,0E0,0E0,0E0,0E0,0E0,0E0,0E0],"parents":[2147483647,0,0,1,1,2,2,3,3,4,4,5,5,6,6,7,7,8,8,9,9,10,10,11,11,12,12,13,13,14,14,17,17,18,18,19,19,20,20,21,21,22,22,23,23,24,24,25,25,26,26,27,27,28,28,29,29,30,30,31,31,32,32,33,33,34,34,35,35,36,36,37,37,38,38,39,39,40,40,41,41,42,42,43,43,44,44,45,45,46,46,47,47,48,48,49,49,50,50,51,51,52,52,53,53,54,54,55,55,56,56,57,57,58,58],"right_children":[2,4,6,8,10,12,14,16,18,20,22,24,26,28,30,-1,-1,32,34,36,38,40,42,44,46,48,50,52,54,56,58,60,62,64,66,68,70,72,74,76,78,80,82,84,86,88,90,92,94,96,98,100,102,104,106,108,110,112,114,-1,-1,-1,-1,-1,-1,-1,-1,-1,-1,-1,-1,-1,-1,-1,-1,-1,-1,-1,-1,-1,-1,-1,-1,-1,-1,-1,-1,-1,-1,-1,-1,-1,-1,-1,-1,-1,-1,-1,-1,-1,-1,-1,-1,-1,-1,-1,-1,-1,-1,-1,-1,-1,-1,-1,-1],"split_conditions":[1.8E1,1E1,2.4E1,6E0,1.4E1,1.01E2,1.08E2,4E0,8.7E1,9.3E1,9.7E1,4.9E1,2.1E1,4.5E1,4.7E1,-2.4478888E1,-2.1700811E1,4.7E1,8E0,4.8E1,1.2E1,4.6E1,4.3E1,2.1E1,2E1,5E1,4.3E1,1.03E2,2.7E1,2.7E1,1E0,1E0,8E0,4.8E1,4.5E1,1E0,1.2E1,5.6E1,4.5E1,9.1E1,9.2E1,1.6E1,1.7E1,9.7E1,9.6E1,9.7E1,2.2E1,1.05E2,1E0,1.05E2,1E0,9.9E1,2.7E1,1E0,8.4E1,1.12E2,1.13E2,2.7E1,2.7E1,-1.8951345E1,-2.0941273E1,-1.8656054E1,-1.628338E1,-1.862218E1,-1.6655697E1,-1.5811492E1,-1.3410626E1,-1.2415822E1,-1.5115829E1,-1.1712855E1,-8.250835E0,-1.0986201E1,-7.4536767E0,-8.313693E0,-4.93559E0,-9.570993E0,-5.791501E0,-4.4039207E0,-7.1786726E-1,-3.6278384E0,4.4656876E-3,1.6234076E0,6.3155684E0,-1.1894512E0,3.0579839E0,3.3076308E0,7.31114E0,3.722761E0,7.5339394E0,9.830821E0,1.4057702E1,6.0564547E0,9.199183E0,1.0030323E1,1.5446179E1,1.0193047E1,1.5196543E1,1.6017694E1,2.2184647E1,1.0086997E1,1.5869409E1,1.8013344E1,2.3859467E1,1.9788216E1,2.5714903E1,2.797032E1,3.557103E1,2.244868E1,2.7879929E1,2.9821474E1,3.5604065E1,2.6474323E1,3.505474E1,3.6004646E1,4.5376198E1],"split_indices":[3,3,3,3,3,4,4,3,4,4,4,1,3,1,1,0,0,1,3,1,3,1,1,3,3,1,1,4,3,3,0,0,3,1,1,0,3,1,1,4,4,3,3,4,4,4,3,4,0,4,0,4,3,0,2,4,4,3,3,0,0,0,0,0,0,0,0,0,0,0,0,0,0,0,0,0,0,0,0,0,0,0,0,0,0,0,0,0,0,0,0,0,0,0,0,0,0,0,0,0,0,0,0,0,0,0,0,0,0,0,0,0,0,0,0],"split_type":[0,0,0,0,0,0,0,0,0,0,0,0,0,0,0,0,0,0,0,0,0,0,0,0,0,0,0,0,0,0,0,0,0,0,0,0,0,0,0,0,0,0,0,0,0,0,0,0,0,0,0,0,0,0,0,0,0,0,0,0,0,0,0,0,0,0,0,0,0,0,0,0,0,0,0,0,0,0,0,0,0,0,0,0,0,0,0,0,0,0,0,0,0,0,0,0,0,0,0,0,0,0,0,0,0,0,0,0,0,0,0,0,0,0,0],"sum_hessian":[1.2E4,6.844E3,5.156E3,3.452E3,3.392E3,2.431E3,2.725E3,1.812E3,1.64E3,1.689E3,1.703E3,1.256E3,1.175E3,1.572E3,1.153E3,9.85E2,8.27E2,6.95E2,9.45E2,9.05E2,7.84E2,1.003E3,7E2,8.13E2,4.43E2,4.7E2,7.05E2,8.93E2,6.79E2,7.12E2,4.41E2,4.46E2,2.49E2,4.1E2,5.35E2,5.62E2,3.43E2,3.21E2,4.63E2,6.2E2,3.83E2,3.86E2,3.14E2,5.14E2,2.99E2,2.08E2,2.35E2,3.08E2,1.62E2,4.01E2,3.04E2,3.53E2,5.4E2,3.9E2,2.89E2,2.43E2,4.69E2,2.12E2,2.29E2,2.29E2,2.17E2,1.38E2,1.11E2,2.4E2,1.7E2,3.07E2,2.28E2,2.76E2,2.86E2,2.06E2,1.37E2,2.47E2,7.4E1,2.89E2,1.74E2,1.93E2,4.27E2,1.54E2,2.29E2,1.5E2,2.36E2,2.17E2,9.7E1,2.54E2,2.6E2,8E1,2.19E2,1.01E2,1.07E2,1.27E2,1.08E2,1.83E2,1.25E2,7.4E1,8.8E1,1.97E2,2.04E2,1.62E2,1.42E2,9.7E1,2.56E2,2.74E2,2.66E2,2.01E2,1.89E2,1.97E2,9.2E1,1.64E2,7.9E1,2.88E2,1.81E2,7.4E1,1.38E2,8.3E1,1.46E2],"tree_param":{"num_deleted":"0","num_feature":"6","num_nodes":"115","size_leaf_vector":"1"}},{"base_weights":[2.5553152E-2,-2.9612616E1,4.5655537E1,-4.6069008E1,-1.0828415E1,2.6994587E1,6.5194176E1,-5.2796898E1,-3.686542E1,-1.8527063E1,1.6007078E0,1.9269913E1,4.0950188E1,4.9748318E1,7.508589E1,-5.5996353E1,-4.756601E1,-4.0693184E1,-3.1788885E1,-2.3341105E1,-1.1255168E1,-3.7651262E0,1.0431449E1,1.1600673E1,2.7153725E1,3.5612774E1,5.4691853E1,4.3597797E1,6.5752304E1,6.561755E1,8.59515E1,-1.777404E1,-1.608506E1,-4.9113457E1,-4.3114647E1,-4.398192E1,-3.7571438E1,-3.4010414E1,-2.630086E1,-2.5778954E1,-1.4777728E1,-1.8654505E1,-7.7242785E0,-8.225007E0,6.2002053E0,4.912533E0,1.740283E1,3.973828E0,1.5974796E1,1.8021103E1,3.1874237E1,2.5790398E1,4.0544758E1,4.1059002E1,6.2650894E1,3.8931797E1,5.3390953E1,5.533077E1,7.800605E1,5.7708694E1,7.624625E1,7.48778E1,9.630152E1,-1.5201057E1,-1.3688852E1,-1.3354618E1,-1.1118174E1,-1.2132182E1,-1.4131408E1,-1.2000371E1,-1.0172692E1,-1.1251424E1,-9.56118E0,-9.311457E0,-7.1075583E0,-9.621E0,-6.8760505E0,-5.442163E0,-2.5428E0,-6.3104644E0,-3.4246564E0,-4.0390043E0,-1.0122412E0,-4.4464874E0,-1.4950862E0,-3.9211905E-1,2.9551558E0,4.5958215E-1,3.226448E0,3.779338E0,7.547979E0,2.7046793E0,-7.4327874E-1,3.4034522E0,6.7300406E0,4.16301E0,8.163921E0,7.7850356E0,1.1416543E1,6.792451E0,9.709612E0,1.0850792E1,1.4416349E1,1.0721406E1,1.52061205E1,1.515658E1,2.1827568E1,8.056923E0,1.2657707E1,1.4139022E1,1.7517757E1,1.2177148E1,1.7873056E1,1.0974795E1,2.4001698E1,1.5533383E1,1.9543848E1,2.1006498E1,2.5360186E1,1.9482244E1,2.4657175E1,2.532496E1,3.174477E1],"categories":[],"categories_nodes":[],"categories_segments":[],"categories_sizes":[],"default_left":[0,0,0,0,0,0,0,0,0,0,0,0,0,0,0,0,0,0,0,0,0,0,0,0,0,0,0,0,0,0,0,0,0,0,0,0,0,0,0,0,0,0,0,0,0,0,0,0,0,0,0,0,0,0,0,0,0,0,0,0,0,0,0,0,0,0,0,0,0,0,0,0,0,0,0,0,0,0,0,0,0,0,0,0,0,0,0,0,0,0,0,0,0,0,0,0,0,0,0,0,0,0,0,0,0,0,0,0,0,0,0,0,0,0,0,0,0,0,0,0,0,0,0],"id":1,"left_children":[1,3,5,7,9,11,13,15,17,19,21,23,25,27,29,31,33,35,37,39,41,43,45,47,49,51,53,55,57,59,61,-1,-1,63,65,67,69,71,73,75,77,79,81,83,85,87,89,91,93,95,97,99,101,103,105,107,109,111,113,115,117,119,121,-1,-1,-1,-1,-1,-1,-1,-1,-1,-1,-1,-1,-1,-1,-1,-1,-1,-1,-1,-1,-1,-1,-1,-1,-1,-1,-1,-1,-1,-1,-1,-1,-1,-1,-1,-1,-1,-1,-1,-1,-1,-1,-1,-1,-1,-1,-1,-1,-1,-1,-1,-1,-1,-1,-1,-1,-1,-1,-1,-1],"loss_changes":[1.6231374E7,2.2486595E6,1.721385E6,2.38182E5,3.252712E5,2.5998525E5,3.48894E5,3.47915E4,3.0594E4,7.32175E4,6.168624E4,9.394656E4,6.1202125E4,8.611675E4,1.38905E5,7.52E3,3.77875E3,7.916E3,7.7616875E3,2.5964812E4,2.1749703E4,3.6050785E4,1.884395E4,2.635825E4,3.2534562E4,2.9134812E4,2.3360188E4,2.789725E4,2.7481875E4,5.906575E4,6.74025E4,0E0,0E0,1.094E3,2.9221875E2,3.0493125E3,2.959625E3,2.55825E3,1.8478438E3,1.6907938E4,5.822254E3,4.412375E3,1.4160086E4,1.190016E4,6.891253E3,5.4346387E3,7.7713125E3,9.455047E3,1.4786883E4,9.679508E3,1.750375E4,3.6357344E3,1.18325E4,2.8505469E3,1.45908125E4,1.650575E4,3.792625E3,6.2189688E3,6.35025E3,1.5902875E4,1.053725E4,1.7843125E4,2.872225E4,0E0,0E0,0E0,0E0,0E0,0E0,0E0,0E0,0E0,0E0,0E0,0E0,0E0,0E0,0E0,0E0,0E0,0E0,0E0,0E0,0E0,0E0,0E0,0E0,0E0,0E0,0E0,0E0,0E0,0E0,0E0,0E0,0E0,0E0,0E0,0E0,0E0,0E0,0E0,0E0,0E0,0E0,0E0,0E0,0E0,0E0,0E0,0E0,0E0,0E0,0E0,0E0,0E0,0E0,0E0,0E0,0E0,0E0,0E0,0E0],"parents":[2147483647,0,0,1,1,2,2,3,3,4,4,5,5,6,6,7,7,8,8,9,9,10,10,11,11,12,12,13,13,14,14,15,15,16,16,17,17,18,18,19,19,20,20,21,21,22,22,23,23,24,24,25,25,26,26,27,27,28,28,29,29,30,30,33,33,34,34,35,35,36,36,37,37,38,38,39,39,40,40,41,41,42,42,43,43,44,44,45,45,46,46,47,47,48,48,49,49,50,50,51,51,52,52,53,53,54,54,55,55,56,56,57,57,58,58,59,59,60,60,61,61,62,62],"right_children":[2,4,6,8,10,12,14,16,18,20,22,24,26,28,30,32,34,36,38,40,42,44,46,48,50,52,54,56,58,60,62,-1,-1,64,66,68,70,72,74,76,78,80,82,84,86,88,90,92,94,96,98,100,102,104,106,108,110,112,114,116,118,120,122,-1,-1,-1,-1,-1,-1,-1,-1,-1,-1,-1,-1,-1,-1,-1,-1,-1,-1,-1,-1,-1,-1,-1,-1,-1,-1,-1,-1,-1,-1,-1,-1,-1,-1,-1,-1,-1,-1,-1,-1,-1,-1,-1,-1,-1,-1,-1,-1,-1,-1,-1,-1,-1,-1,-1,-1,-1,-1,-1,-1],"split_conditions":[1.9E1,1.1E1,2.5E1,7E0,1.6E1,1.04E2,1.06E2,5E0,9E1,9.5E1,9.9E1,4E1,5.4E1,5.5E1,4.2E1,3E0,5.6E1,4E1,5.3E1,5.9E1,1.3E1,5.3E1,4.4E1,9.8E1,9.8E1,2.2E1,2.2E1,2.8E1,1E0,1.11E2,1E0,-1.777404E1,-1.608506E1,8.8E1,9.1E1,1E0,9E0,9E0,9E0,8.9E1,1.4E1,5.4E1,3.5E1,9.3E1,9.3E1,1.03E2,8.5E1,1E0,2.2E1,6.4E1,1E0,4E1,1.08E2,8.3E1,1E0,1E2,3.1E1,1.01E2,9.7E1,2.8E1,2.9E1,2.8E1,5.7E1,-1.5201057E1,-1.3688852E1,-1.3354618E1,-1.1118174E1,-1.2132182E1,-1.4131408E1,-1.2000371E1,-1.0172692E1,-1.1251424E1,-9.56118E0,-9.311457E0,-7.1075583E0,-9.621E0,-6.8760505E0,-5.442163E0,-2.5428E0,-6.3104644E0,-3.4246564E0,-4.0390043E0,-1.0122412E0,-4.4464874E0,-1.4950862E0,-3.9211905E-1,2.9551558E0,4.5958215E-1,3.226448E0,3.779338E0,7.547979E0,2.7046793E0,-7.4327874E-1,3.4034522E0,6.7300406E0,4.16301E0,8.163921E0,7.7850356E0,1.1416543E1,6.792451E0,9.709612E0,1.0850792E1,1.4416349E1,1.0721406E1,1.52061205E1,1.515658E1,2.1827568E1,8.056923E0,1.2657707E1,1.4139022E1,1.7517757E1,1.2177148E1,1.7873056E1,1.0974795E1,2.4001698E1,1.5533383E1,1.9543848E1,2.1006498E1,2.5360186E1,1.9482244E1,2.4657175E1,2.532496E1,3.174477E1],"split_indices":[3,3,3,3,3,4,4,3,4,4,4,1,1,1,1,3,1,1,1,1,3,1,1,4,4,3,3,3,0,4,0,0,0,4,4,0,3,3,3,4,3,1,1,4,4,4,2,0,3,1,0,1,4,2,0,4,1,4,4,3,3,3,1,0,0,0,0,0,0,0,0,0,0,0,0,0,0,0,0,0,0,0,0,0,0,0,0,0,0,0,0,0,0,0,0,0,0,0,0,0,0,0,0,0,0,0,0,0,0,0,0,0,0,0,0,0,0,0,0,0,0,0,0],"split_type":[0,0,0,0,0,0,0,0,0,0,0,0,0,0,0,0,0,0,0,0,0,0,0,0,0,0,0,0,0,0,0,0,0,0,0,0,0,0,0,0,0,0,0,0,0,0,0,0,0,0,0,0,0,0,0,0,0,0,0,0,0,0,0,0,0,0,0,0,0,0,0,0,0,0,0,0,0,0,0,0,0,0,0,0,0,0,0,0,0,0,0,0,0,0,0,0,0,0,0,0,0,0,0,0,0,0,0,0,0,0,0,0,0,0,0,0,0,0,0,0,0,0,0],"sum_hessian":[1.2E4,7.275E3,4.725E3,3.877E3,3.398E3,2.418E3,2.307E3,2.237E3,1.64E3,2.098E3,1.3E3,1.558E3,8.6E2,9.03E2,1.404E3,1.382E3,8.55E2,9.31E2,7.09E2,1.261E3,8.37E2,8.09E2,4.91E2,7.91E2,7.67E2,6.22E2,2.38E2,6.55E2,2.48E2,7.54E2,6.5E2,5.74E2,8.08E2,6.27E2,2.28E2,4.47E2,4.84E2,5.01E2,2.08E2,9.8E2,2.81E2,2.69E2,5.68E2,5.59E2,2.5E2,2.75E2,2.16E2,2.89E2,5.02E2,2.63E2,5.04E2,2.1E2,4.12E2,9E1,1.48E2,4.47E2,2.08E2,1.37E2,1.11E2,4.36E2,3.18E2,3.18E2,3.32E2,4.24E2,2.03E2,1.8E2,4.8E1,2.16E2,2.31E2,2.85E2,1.99E2,1.84E2,3.17E2,7E1,1.38E2,3.03E2,6.77E2,1.82E2,9.9E1,2.01E2,6.8E1,2.44E2,3.24E2,1.83E2,3.76E2,8.2E1,1.68E2,1.75E2,1E2,1.35E2,8.1E1,1.62E2,1.27E2,2.94E2,2.08E2,1.83E2,8E1,2.6E2,2.44E2,1.45E2,6.5E1,2.64E2,1.48E2,6.1E1,2.9E1,7E1,7.8E1,9.7E1,3.5E2,9.7E1,1.11E2,3.3E1,1.04E2,6E0,1.05E2,2.47E2,1.89E2,1.87E2,1.31E2,1.39E2,1.79E2,1.52E2,1.8E2],"tree_param":{"num_deleted":"0","num_feature":"6","num_nodes":"123","size_leaf_vector":"1"}},{"base_weights":[3.8537968E-2,-2.2388247E1,2.9806097E1,-3.229289E1,-9.439261E0,1.4585044E1,4.3374622E1,-3.6996803E1,-2.5858E1,-1.4817821E1,-2.441073E0,8.748971E0,2.2696444E1,3.7333595E1,5.8727474E1,-3.9221928E1,-3.3358547E1,-2.9745325E1,-2.3205685E1,-1.6684086E1,-6.65773E0,-5.666564E0,4.6802735E0,5.915671E0,1.883837E1,1.5283213E1,2.743826E1,3.245563E1,4.7742115E1,4.7867115E1,6.536266E1,-1.2451101E1,-3.755169E1,-1.0880811E1,-3.1779257E1,-3.2746677E1,-2.7620684E1,-2.4334692E1,-1.6694416E1,-2.0209955E1,-1.2853757E1,-8.1325035E0,5.7266574E0,-1.13742895E1,-2.0430193E0,2.4079607E0,1.2444598E1,3.1263628E0,1.4466942E1,1.1321101E1,2.6092007E1,1.2803356E1,2.4029324E1,2.2404757E1,3.416648E1,2.4788818E1,3.74916E1,4.2110977E1,5.9441418E1,3.794021E1,5.190396E1,5.645574E1,7.410585E1,-1.2029356E1,-1.0840708E1,-1.0104821E1,-8.924741E0,-1.0275054E1,-8.762323E0,-8.622066E0,-6.5183187E0,-7.6353426E0,-5.5121126E0,-6.0736537E0,-4.2938457E0,-4.8669276E0,-7.2220645E0,-5.261422E0,-3.1414678E0,-2.9954476E0,-4.2857465E-1,-1.3587315E0,3.6873403E0,-1.5532194E0,-5.049531E0,-2.9835E0,-1.5608224E-1,-8.2056093E-1,1.3684149E0,2.3723776E0,6.8715925E0,-1.8613955E0,1.6032196E0,2.7769966E0,5.4845767E0,1.9010341E0,5.8385277E0,3.4243116E0,8.596435E0,1.7884378E0,4.4916687E0,6.2644224E0,9.4267645E0,6.015471E0,9.480413E0,9.1485E0,1.3156091E1,5.531084E0,8.898194E0,8.920817E0,1.2334815E1,9.460737E0,1.3769458E1,1.4770116E1,2.1196913E1,8.445556E0,1.1863172E1,1.4808261E1,2.0532976E1,1.4432397E1,1.8665016E1,2.0975357E1,2.6598513E1],"categories":[],"categories_nodes":[],"categories_segments":[],"categories_sizes":[],"default_left":[0,0,0,0,0,0,0,0,0,0,0,0,0,0,0,0,0,0,0,0,0,0,0,0,0,0,0,0,0,0,0,0,0,0,0,0,0,0,0,0,0,0,0,0,0,0,0,0,0,0,0,0,0,0,0,0,0,0,0,0,0,0,0,0,0,0,0,0,0,0,0,0,0,0,0,0,0,0,0,0,0,0,0,0,0,0,0,0,0,0,0,0,0,0,0,0,0,0,0,0,0,0,0,0,0,0,0,0,0,0,0,0,0,0,0,0,0,0,0,0,0,0,0],"id":2,"left_children":[1,3,5,7,9,11,13,15,17,19,21,23,25,27,29,31,33,35,37,39,41,43,45,47,49,51,53,55,57,59,61,-1,63,-1,65,67,69,71,73,75,77,79,81,83,85,87,89,91,93,95,97,99,101,103,105,107,109,111,113,115,117,119,121,-1,-1,-1,-1,-1,-1,-1,-1,-1,-1,-1,-1,-1,-1,-1,-1,-1,-1,-1,-1,-1,-1,-1,-1,-1,-1,-1,-1,-1,-1,-1,-1,-1,-1,-1,-1,-1,-1,-1,-1,-1,-1,-1,-1,-1,-1,-1,-1,-1,-1,-1,-1,-1,-1,-1,-1,-1,-1,-1,-1],"loss_changes":[8.0124225E6,8.77601E5,1.064428E6,1.16427E5,1.1167984E5,1.1492922E5,2.50636E5,1.680975E4,1.6229125E4,2.5442969E4,2.9680582E4,4.0366758E4,3.5330344E4,9.79135E4,5.221375E4,3.712E3,2.7824375E3,3.3169375E3,6.798E3,1.8174875E4,5.7815215E3,1.836323E4,7.0801533E3,2.6359078E4,1.6608148E4,8.346289E3,2.0197938E4,5.0691875E4,3.8540375E4,9.852375E3,3.2729E4,0E0,1.46775E3,0E0,1.1735E3,4.309375E2,1.9749062E3,5.0760625E3,9.6191016E2,1.0530625E4,7.147797E3,3.4751426E3,2.3446738E3,1.1580559E4,6.5526494E3,3.4790771E3,4.1374375E3,1.7332852E4,5.2373555E3,6.125326E3,5.578539E3,4.555418E3,1.3686289E3,7.0923125E3,8.0165938E3,1.5946969E4,2.1405625E4,1.55339375E4,1.9417E4,2.8385156E2,5.3281875E3,8.500625E3,8.1875E3,0E0,0E0,0E0,0E0,0E0,0E0,0E0,0E0,0E0,0E0,0E0,0E0,0E0,0E0,0E0,0E0,0E0,0E0,0E0,0E0,0E0,0E0,0E0,0E0,0E0,0E0,0E0,0E0,0E0,0E0,0E0,0E0,0E0,0E0,0E0,0E0,0E0,0E0,0E0,0E0,0E0,0E0,0E0,0E0,0E0,0E0,0E0,0E0,0E0,0E0,0E0,0E0,0E0,0E0,0E0,0E0,0E0,0E0,0E0,0E0],"parents":[2147483647,0,0,1,1,2,2,3,3,4,4,5,5,6,6,7,7,8,8,9,9,10,10,11,11,12,12,13,13,14,14,15,15,16,16,17,17,18,18,19,19,20,20,21,21,22,22,23,23,24,24,25,25,26,26,27,27,28,28,29,29,30,30,32,32,34,34,35,35,36,36,37,37,38,38,39,39,40,40,41,41,42,42,43,43,44,44,45,45,46,46,47,47,48,48,49,49,50,50,51,51,52,52,53,53,54,54,55,55,56,56,57,57,58,58,59,59,60,60,61,61,62,62],"right_children":[2,4,6,8,10,12,14,16,18,20,22,24,26,28,30,32,34,36,38,40,42,44,46,48,50,52,54,56,58,60,62,-1,64,-1,66,68,70,72,74,76,78,80,82,84,86,88,90,92,94,96,98,100,102,104,106,108,110,112,114,116,118,120,122,-1,-1,-1,-1,-1,-1,-1,-1,-1,-1,-1,-1,-1,-1,-1,-1,-1,-1,-1,-1,-1,-1,-1,-1,-1,-1,-1,-1,-1,-1,-1,-1,-1,-1,-1,-1,-1,-1,-1,-1,-1,-1,-1,-1,-1,-1,-1,-1,-1,-1,-1,-1,-1,-1,-1,-1,-1,-1,-1,-1],"split_conditions":[1.8E1,1.1E1,2.4E1,7E0,1.5E1,1.02E2,1.1E2,5E0,8.8E1,9.8E1,9.9E1,5.8E1,3.5E1,5.2E1,3.4E1,3E0,8.4E1,8.4E1,6.5E1,4E1,6.8E1,3.3E1,9E1,2.2E1,1E0,1.08E2,2.2E1,1.04E2,2.8E1,2.7E1,1E0,-1.2451101E1,8.2E1,-1.0880811E1,4.2E1,5.2E1,6.6E1,9.6E1,1E0,1E0,9E1,1.02E2,1E0,1E0,9E1,2.8E1,5.5E1,9.4E1,3.2E1,2.1E1,9.4E1,2E1,1.12E2,6.8E1,8.7E1,2.6E1,2.6E1,1.02E2,1E0,2.2E1,1.17E2,2.8E1,1.15E2,-1.2029356E1,-1.0840708E1,-1.0104821E1,-8.924741E0,-1.0275054E1,-8.762323E0,-8.622066E0,-6.5183187E0,-7.6353426E0,-5.5121126E0,-6.0736537E0,-4.2938457E0,-4.8669276E0,-7.2220645E0,-5.261422E0,-3.1414678E0,-2.9954476E0,-4.2857465E-1,-1.3587315E0,3.6873403E0,-1.5532194E0,-5.049531E0,-2.9835E0,-1.5608224E-1,-8.2056093E-1,1.3684149E0,2.3723776E0,6.8715925E0,-1.8613955E0,1.6032196E0,2.7769966E0,5.4845767E0,1.9010341E0,5.8385277E0,3.4243116E0,8.596435E0,1.7884378E0,4.4916687E0,6.2644224E0,9.4267645E0,6.015471E0,9.480413E0,9.1485E0,1.3156091E1,5.531084E0,8.898194E0,8.920817E0,1.2334815E1,9.460737E0,1.3769458E1,1.4770116E1,2.1196913E1,8.445556E0,1.1863172E1,1.4808261E1,2.0532976E1,1.4432397E1,1.8665016E1,2.0975357E1,2.6598513E1],"split_indices":[3,3,3,3,3,4,4,3,4,4,4,1,1,1,1,3,4,4,1,1,1,1,2,3,0,4,3,4,3,3,0,0,4,0,1,1,1,4,0,0,4,4,0,0,4,1,1,4,1,3,4,3,4,1,2,3,3,4,0,1,4,3,4,0,0,0,0,0,0,0,0,0,0,0,0,0,0,0,0,0,0,0,0,0,0,0,0,0,0,0,0,0,0,0,0,0,0,0,0,0,0,0,0,0,0,0,0,0,0,0,0,0,0,0,0,0,0,0,0,0,0,0,0],"split_type":[0,0,0,0,0,0,0,0,0,0,0,0,0,0,0,0,0,0,0,0,0,0,0,0,0,0,0,0,0,0,0,0,0,0,0,0,0,0,0,0,0,0,0,0,0,0,0,0,0,0,0,0,0,0,0,0,0,0,0,0,0,0,0,0,0,0,0,0,0,0,0,0,0,0,0,0,0,0,0,0,0,0,0,0,0,0,0,0,0,0,0,0,0,0,0,0,0,0,0,0,0,0,0,0,0,0,0,0,0,0,0,0,0,0,0,0,0,0,0,0,0,0,0],"sum_hessian":[1.2E4,6.844E3,5.156E3,3.877E3,2.967E3,2.431E3,2.725E3,2.237E3,1.64E3,1.677E3,1.29E3,1.415E3,1.016E3,1.958E3,7.67E2,1.382E3,8.55E2,6.61E2,9.79E2,1.364E3,3.13E2,8.88E2,4.02E2,1.106E3,3.09E2,3.98E2,6.18E2,1.336E3,6.22E2,2.94E2,4.73E2,5.74E2,8.08E2,2.93E2,5.62E2,2.68E2,3.93E2,8.32E2,1.47E2,7.08E2,6.56E2,2.8E2,3.3E1,3.44E2,5.44E2,3.12E2,9E1,8.35E2,2.71E2,1.53E2,1.56E2,3.12E2,8.6E1,3.56E2,2.62E2,5.32E2,8.04E2,4.23E2,1.99E2,8.8E1,2.06E2,2.38E2,2.35E2,2.79E2,5.29E2,2.82E2,2.8E2,1.82E2,8.6E1,3.27E2,6.6E1,6.98E2,1.34E2,5.6E1,9.1E1,3.51E2,3.57E2,2.19E2,4.37E2,2.19E2,6.1E1,1.3E1,2E1,1.62E2,1.82E2,8.7E1,4.57E2,9.2E1,2.2E2,6.4E1,2.6E1,1.6E2,6.75E2,1.16E2,1.55E2,9.6E1,5.7E1,2.4E1,1.32E2,7.6E1,2.36E2,6.3E1,2.3E1,2.86E2,7E1,1.93E2,6.9E1,2.33E2,2.99E2,2.59E2,5.45E2,1.14E2,3.09E2,1.07E2,9.2E1,1.5E1,7.3E1,1.82E2,2.4E1,1.01E2,1.37E2,1.87E2,4.8E1],"tree_param":{"num_deleted":"0","num_feature":"6","num_nodes":"123","size_leaf_vector":"1"}},{"base_weights":[4.1498575E-2,-1.3569938E1,2.4351236E1,-2.1908628E1,-2.9876966E0,1.6502918E1,3.442129E1,-2.5356058E1,-1.6552954E1,-6.758246E0,3.2000897E0,1.3089462E1,2.5039843E1,2.9690908E1,4.3434044E1,-2.7480888E1,-2.2954115E1,-1.8501568E1,-1.3025139E1,-1.0258446E1,-3.8557775E0,-2.458601E0,5.9505043E0,7.352963E0,1.6877413E1,1.8938501E1,2.972793E1,2.1237514E1,3.4264877E1,3.938192E1,5.484505E1,-9.424576E0,-2.6839466E1,-2.4496399E1,-2.1072464E1,-2.131537E1,-1.66644E1,-1.6236847E1,-1.0848118E1,-1.4428662E1,-7.8762264E0,-5.4194126E0,2.5535128E0,1.8326522E0,-7.209599E0,4.432384E0,1.3985244E1,1.1321166E1,3.2704363E0,1.3264519E1,2.1463173E1,1.4286652E1,2.1478527E1,2.5632349E1,3.7158443E1,1.8468075E1,2.9327589E1,3.093633E1,4.351674E1,3.594832E1,4.8977463E1,1.4160144E1,6.101445E1,-8.373649E0,-7.501683E0,-6.7748547E0,-7.9857078E0,-6.530383E0,-5.1213284E0,-5.5139747E0,-7.2291207E0,-5.869599E0,-4.5695457E0,-3.9861476E0,-5.680997E0,-3.5139215E0,-1.963012E0,-3.0313876E0,-5.521911E0,-2.6514957E0,-2.6863706E-1,-2.1153343E0,-1.2195953E-2,-9.734009E-1,2.8696053E0,-5.8085635E-2,1.5883502E0,-3.3076808E0,2.1152966E-1,-1.6702175E0,1.5866593E0,2.7361894E0,5.29722E0,1.1608933E0,3.8002477E0,-1.2903576E0,1.7024864E0,3.2222195E0,5.7535963E0,5.817355E0,8.722291E0,2.474752E0,4.762683E0,5.163005E0,7.3157864E0,7.389422E0,1.1216232E1,9.742255E0,1.3685203E1,4.284191E0,6.690168E0,7.1767807E0,9.459285E0,8.568028E0,1.1860704E1,1.1294762E1,1.5612352E1,1.0061028E1,1.3024606E1,1.3531411E1,1.920686E1,1.652683E1,2.0954052E1],"categories":[],"categories_nodes":[],"categories_segments":[],"categories_sizes":[],"default_left":[0,0,0,0,0,0,0,0,0,0,0,0,0,0,0,0,0,0,0,0,0,0,0,0,0,0,0,0,0,0,0,0,0,0,0,0,0,0,0,0,0,0,0,0,0,0,0,0,0,0,0,0,0,0,0,0,0,0,0,0,0,0,0,0,0,0,0,0,0,0,0,0,0,0,0,0,0,0,0,0,0,0,0,0,0,0,0,0,0,0,0,0,0,0,0,0,0,0,0,0,0,0,0,0,0,0,0,0,0,0,0,0,0,0,0,0,0,0,0,0,0,0,0],"id":3,"left_children":[1,3,5,7,9,11,13,15,17,19,21,23,25,27,29,31,33,35,37,39,41,43,45,47,49,51,53,55,57,59,61,-1,63,65,67,69,71,73,75,77,79,81,83,85,87,89,91,93,95,97,99,101,103,105,107,109,111,113,115,117,119,-1,121,-1,-1,-1,-1,-1,-1,-1,-1,-1,-1,-1,-1,-1,-1,-1,-1,-1,-1,-1,-1,-1,-1,-1,-1,-1,-1,-1,-1,-1,-1,-1,-1,-1,-1,-1,-1,-1,-1,-1,-1,-1,-1,-1,-1,-1,-1,-1,-1,-1,-1,-1,-1,-1,-1,-1,-1,-1,-1,-1,-1],"loss_changes":[3.9713462E6,6.7886875E5,3.3990625E5,7.9028E4,7.916158E4,7.027944E4,7.91175E4,1.27205E4,1.13629375E4,2.1376086E4,2.0014047E4,3.753328E4,1.9202125E4,4.7217625E4,2.77565E4,2.6469375E3,3.0649375E3,5.253625E3,4.0470078E3,9.3736875E3,1.1578982E4,8.596449E3,1.0489023E4,1.1157379E4,1.6995562E4,3.2733281E3,1.08856875E4,9.271766E3,2.3382312E4,1.40870625E4,4.9962188E3,0E0,1.65475E3,2.128375E3,1.195125E3,3.0274688E3,2.4489688E3,1.6755742E3,1.2749492E3,5.765125E3,4.0889297E3,8.144334E3,9.259929E3,1.5582756E3,6.0482754E3,6.273045E3,2.2862676E3,3.462246E3,6.250901E3,8.540648E3,6.658953E3,9.243008E2,1.9879297E3,2.0677188E3,3.9074219E3,4.961422E3,5.557031E2,1.10086875E4,8.5443125E3,4.9905938E3,4.3374375E3,0E0,8.0971875E2,0E0,0E0,0E0,0E0,0E0,0E0,0E0,0E0,0E0,0E0,0E0,0E0,0E0,0E0,0E0,0E0,0E0,0E0,0E0,0E0,0E0,0E0,0E0,0E0,0E0,0E0,0E0,0E0,0E0,0E0,0E0,0E0,0E0,0E0,0E0,0E0,0E0,0E0,0E0,0E0,0E0,0E0,0E0,0E0,0E0,0E0,0E0,0E0,0E0,0E0,0E0,0E0,0E0,0E0,0E0,0E0,0E0,0E0,0E0,0E0],"parents":[2147483647,0,0,1,1,2,2,3,3,4,4,5,5,6,6,7,7,8,8,9,9,10,10,11,11,12,12,13,13,14,14,15,15,16,16,17,17,18,18,19,19,20,20,21,21,22,22,23,23,24,24,25,25,26,26,27,27,28,28,29,29,30,30,32,32,33,33,34,34,35,35,36,36,37,37,38,38,39,39,40,40,41,41,42,42,43,43,44,44,45,45,46,46,47,47,48,48,49,49,50,50,51,51,52,52,53,53,54,54,55,55,56,56,57,57,58,58,59,59,60,60,62,62],"right_children":[2,4,6,8,10,12,14,16,18,20,22,24,26,28,30,32,34,36,38,40,42,44,46,48,50,52,54,56,58,60,62,-1,64,66,68,70,72,74,76,78,80,82,84,86,88,90,92,94,96,98,100,102,104,106,108,110,112,114,116,118,120,-1,122,-1,-1,-1,-1,-1,-1,-1,-1,-1,-1,-1,-1,-1,-1,-1,-1,-1,-1,-1,-1,-1,-1,-1,-1,-1,-1,-1,-1,-1,-1,-1,-1,-1,-1,-1,-1,-1,-1,-1,-1,-1,-1,-1,-1,-1,-1,-1,-1,-1,-1,-1,-1,-1,-1,-1,-1,-1,-1,-1,-1],"split_conditions":[2E1,1.2E1,2.6E1,8E0,1.7E1,1.06E2,1.1E2,5E0,9.2E1,9.4E1,3.2E1,3.5E1,3.7E1,3.3E1,5.6E1,2E0,4.3E1,3.5E1,3.5E1,3.2E1,6E1,1E0,1.04E2,1E0,2.3E1,2.3E1,8.2E1,2.9E1,2.9E1,8.6E1,1E0,-9.424576E0,4.7E1,1E0,9.2E1,1E0,8.6E1,1E0,9.3E1,1E0,9.6E1,1.01E2,1E0,1E2,1E2,9.1E1,1E0,9.6E1,9.8E1,6.2E1,6.7E1,1.07E2,2.6E1,1.13E2,6.3E1,1.05E2,1.04E2,8.9E1,8E1,1.15E2,1.16E2,1.4160144E1,2.9E1,-8.373649E0,-7.501683E0,-6.7748547E0,-7.9857078E0,-6.530383E0,-5.1213284E0,-5.5139747E0,-7.2291207E0,-5.869599E0,-4.5695457E0,-3.9861476E0,-5.680997E0,-3.5139215E0,-1.963012E0,-3.0313876E0,-5.521911E0,-2.6514957E0,-2.6863706E-1,-2.1153343E0,-1.2195953E-2,-9.734009E-1,2.8696053E0,-5.8085635E-2,1.5883502E0,-3.3076808E0,2.1152966E-1,-1.6702175E0,1.5866593E0,2.7361894E0,5.29722E0,1.1608933E0,3.8002477E0,-1.2903576E0,1.7024864E0,3.2222195E0,5.7535963E0,5.817355E0,8.722291E0,2.474752E0,4.762683E0,5.163005E0,7.3157864E0,7.389422E0,1.1216232E1,9.742255E0,1.3685203E1,4.284191E0,6.690168E0,7.1767807E0,9.459285E0,8.568028E0,1.1860704E1,1.1294762E1,1.5612352E1,1.0061028E1,1.3024606E1,1.3531411E1,1.920686E1,1.652683E1,2.0954052E1],"split_indices":[3,3,3,3,3,4,4,3,4,4,1,1,1,1,1,3,1,1,1,1,1,0,4,0,3,3,2,3,3,2,0,0,1,0,4,0,4,0,2,0,2,4,0,4,4,4,0,4,4,1,1,4,1,4,1,4,4,2,2,4,4,0,3,0,0,0,0,0,0,0,0,0,0,0,0,0,0,0,0,0,0,0,0,0,0,0,0,0,0,0,0,0,0,0,0,0,0,0,0,0,0,0,0,0,0,0,0,0,0,0,0,0,0,0,0,0,0,0,0,0,0,0,0],"split_type":[0,0,0,0,0,0,0,0,0,0,0,0,0,0,0,0,0,0,0,0,0,0,0,0,0,0,0,0,0,0,0,0,0,0,0,0,0,0,0,0,0,0,0,0,0,0,0,0,0,0,0,0,0,0,0,0,0,0,0,0,0,0,0,0,0,0,0,0,0,0,0,0,0,0,0,0,0,0,0,0,0,0,0,0,0,0,0,0,0,0,0,0,0,0,0,0,0,0,0,0,0,0,0,0,0,0,0,0,0,0,0,0,0,0,0,0,0,0,0,0,0,0,0],"sum_hessian":[1.2E4,7.693E3,4.307E3,4.302E3,3.391E3,2.422E3,1.885E3,2.615E3,1.687E3,2.107E3,1.284E3,1.732E3,6.9E2,1.239E3,6.46E2,1.382E3,1.233E3,1.084E3,6.03E2,9.54E2,1.153E3,4.2E2,8.64E2,6.9E2,1.042E3,3.02E2,3.88E2,4.37E2,8.02E2,4.8E2,1.66E2,1.87E2,1.195E3,6.71E2,5.62E2,4.24E2,6.6E2,2.41E2,3.62E2,3.45E2,6.09E2,9.27E2,2.26E2,2.21E2,1.99E2,7.28E2,1.36E2,3.49E2,3.41E2,5.85E2,4.57E2,1.09E2,1.93E2,2.53E2,1.35E2,3.28E2,1.09E2,5.93E2,2.09E2,3.57E2,1.23E2,7.8E1,8.8E1,7.45E2,4.5E2,3.59E2,3.12E2,4.75E2,8.7E1,2.1E2,2.14E2,2.14E2,4.46E2,1.18E2,1.23E2,3E2,6.2E1,1.67E2,1.78E2,5.35E2,7.4E1,7.11E2,2.16E2,1.24E2,1.02E2,1.4E2,8.1E1,1.34E2,6.5E1,5.7E1,6.71E2,6E1,7.6E1,5.4E1,2.95E2,8.2E1,2.59E2,4.12E2,1.73E2,3.62E2,9.5E1,2.4E1,8.5E1,8.1E1,1.12E2,2.36E2,1.7E1,9E1,4.5E1,1.59E2,1.69E2,3.5E1,7.4E1,4.68E2,1.25E2,1.27E2,8.2E1,2.74E2,8.3E1,1.01E2,2.2E1,5.7E1,3.1E1],"tree_param":{"num_deleted":"0","num_feature":"6","num_nodes":"123","size_leaf_vector":"1"}},{"base_weights":[4.3855418E-2,-9.51135E0,1.7109247E1,-1.4843671E1,-1.0527705E0,1.0702013E1,2.324938E1,-1.728158E1,-1.0378179E1,-3.0133283E0,4.274604E0,4.6495733E0,1.3298624E1,2.044004E1,3.3294525E1,-1.9938808E1,-1.5931342E1,-1.4564032E1,-9.366739E0,-5.6864066E0,-4.1257963E-1,2.8435774E0,1.1129147E1,-2.3187568E0,6.311279E0,1.1579003E1,2.2106422E1,1.8171627E1,2.927382E1,2.4625076E1,3.70216E1,-2.1605904E1,-1.9025738E1,-1.7477829E1,-1.4314588E1,-2.0422619E1,-1.3615693E1,-1.2535894E1,-8.237313E0,-2.65021E0,-8.792076E0,-1.6096766E0,5.824058E0,1.7973611E0,1.1160743E1,5.5664134E0,1.5727623E1,-4.5552197E0,1.2706167E0,2.398315E0,8.176275E0,6.4212117E0,1.3623209E1,1.5020309E1,2.8614237E1,1.2729501E1,2.0510157E1,2.2811285E1,3.5113903E1,2.2334059E1,8.707316E0,3.1843884E1,4.393199E1,-6.0842757E0,-6.855857E0,-6.2330832E0,-5.497507E0,-5.6291656E0,-4.8989806E0,-4.414753E0,-3.0767918E0,-4.5595903E0,-6.8866205E0,-4.707873E0,-3.6501248E0,-2.9712343E0,-4.473665E0,-2.7052329E0,-1.3342557E0,-1.2898209E0,2.9389458E-2,-3.6736557E0,-1.8789445E0,-1.2569758E0,2.436973E-1,7.492292E-1,3.74741E0,-2.5269288E-1,9.8283833E-1,2.612064E0,4.969505E0,2.3192558E0,9.0388536E-1,4.0785594E0,5.6464534E0,-1.5882596E0,3.0209846E0,-4.7042444E-1,1.1198709E0,1.9140491E0,-7.360124E-1,1.9720114E0,4.5484223E0,3.471E0,7.273616E-1,2.780418E0,4.7726665E0,3.9408991E0,7.2138886E0,6.496428E0,9.8174305E0,3.5154738E0,6.823197E0,5.1035566E0,7.2050447E0,6.1250224E0,9.967634E0,9.47397E0,1.2433367E1,5.893013E0,7.243633E0,8.511853E0,1.1057942E1,1.22559E1,1.6591518E1],"categories":[],"categories_nodes":[],"categories_segments":[],"categories_sizes":[],"default_left":[0,0,0,0,0,0,0,0,0,0,0,0,0,0,0,0,0,0,0,0,0,0,0,0,0,0,0,0,0,0,0,0,0,0,0,0,0,0,0,0,0,0,0,0,0,0,0,0,0,0,0,0,0,0,0,0,0,0,0,0,0,0,0,0,0,0,0,0,0,0,0,0,0,0,0,0,0,0,0,0,0,0,0,0,0,0,0,0,0,0,0,0,0,0,0,0,0,0,0,0,0,0,0,0,0,0,0,0,0,0,0,0,0,0,0,0,0,0,0,0,0,0,0,0,0],"id":4,"left_children":[1,3,5,7,9,11,13,15,17,19,21,23,25,27,29,31,33,35,37,39,41,43,45,47,49,51,53,55,57,59,61,63,65,67,69,71,73,75,77,79,81,83,85,87,89,91,93,95,97,99,101,103,105,107,109,111,113,115,117,119,-1,121,123,-1,-1,-1,-1,-1,-1,-1,-1,-1,-1,-1,-1,-1,-1,-1,-1,-1,-1,-1,-1,-1,-1,-1,-1,-1,-1,-1,-1,-1,-1,-1,-1,-1,-1,-1,-1,-1,-1,-1,-1,-1,-1,-1,-1,-1,-1,-1,-1,-1,-1,-1,-1,-1,-1,-1,-1,-1,-1,-1,-1,-1,-1],"loss_changes":[1.9570856E6,3.470135E5,1.692335E5,5.1193938E4,3.1096084E4,3.3098594E4,6.137575E4,1.06289375E4,6.929703E3,1.5125221E4,7.8253857E3,7.367499E3,2.2099625E4,3.3954562E4,1.45656875E4,1.147625E3,4.8204062E3,1.5164922E3,4.718086E3,1.0094469E4,8.251685E3,5.757772E3,3.4425059E3,9.9317053E2,3.7240938E3,1.2954922E4,1.0637828E4,1.7199781E4,1.2408594E4,8.333672E2,1.05158125E4,1.23046875E2,4.4142188E2,1.2170625E3,1.4727188E3,2.2005273E2,6.546172E2,2.0537031E3,2.9045938E3,2.4659758E3,4.5520625E3,5.7965493E3,3.9167822E3,2.3097024E3,8.371094E2,3.3042322E2,2.3893164E2,8.7469666E2,3.4135846E2,3.2418748E3,3.7855215E3,7.235992E3,8.662266E3,1.6736797E3,2.8386406E3,3.9362656E3,1.1343531E4,3.5360234E3,2.763E3,1.7957031E1,0E0,2.3318281E3,2.6430625E3,0E0,0E0,0E0,0E0,0E0,0E0,0E0,0E0,0E0,0E0,0E0,0E0,0E0,0E0,0E0,0E0,0E0,0E0,0E0,0E0,0E0,0E0,0E0,0E0,0E0,0E0,0E0,0E0,0E0,0E0,0E0,0E0,0E0,0E0,0E0,0E0,0E0,0E0,0E0,0E0,0E0,0E0,0E0,0E0,0E0,0E0,0E0,0E0,0E0,0E0,0E0,0E0,0E0,0E0,0E0,0E0,0E0,0E0,0E0,0E0,0E0,0E0],"parents":[2147483647,0,0,1,1,2,2,3,3,4,4,5,5,6,6,7,7,8,8,9,9,10,10,11,11,12,12,13,13,14,14,15,15,16,16,17,17,18,18,19,19,20,20,21,21,22,22,23,23,24,24,25,25,26,26,27,27,28,28,29,29,30,30,31,31,32,32,33,33,34,34,35,35,36,36,37,37,38,38,39,39,40,40,41,41,42,42,43,43,44,44,45,45,46,46,47,47,48,48,49,49,50,50,51,51,52,52,53,53,54,54,55,55,56,56,57,57,58,58,59,59,61,61,62,62],"right_children":[2,4,6,8,10,12,14,16,18,20,22,24,26,28,30,32,34,36,38,40,42,44,46,48,50,52,54,56,58,60,62,64,66,68,70,72,74,76,78,80,82,84,86,88,90,92,94,96,98,100,102,104,106,108,110,112,114,116,118,120,-1,122,124,-1,-1,-1,-1,-1,-1,-1,-1,-1,-1,-1,-1,-1,-1,-1,-1,-1,-1,-1,-1,-1,-1,-1,-1,-1,-1,-1,-1,-1,-1,-1,-1,-1,-1,-1,-1,-1,-1,-1,-1,-1,-1,-1,-1,-1,-1,-1,-1,-1,-1,-1,-1,-1,-1,-1,-1,-1,-1,-1,-1,-1,-1],"split_conditions":[2E1,1.3E1,1.05E2,9E0,1E2,9.9E1,2.9E1,8.3E1,8.7E1,3.9E1,6E1,9.4E1,6.4E1,6E1,3.1E1,7.9E1,6E0,8.1E1,2.9E1,1E0,9.4E1,1.07E2,1E0,9.3E1,3.1E1,2.8E1,1E0,2.8E1,1E0,3E1,8E1,1E0,3E0,4E0,7.1E1,1E0,3.3E1,1E0,9.7E1,1.7E1,8.4E1,1.6E1,6.7E1,3.1E1,1.1E2,6.4E1,1.04E2,1.01E2,3.8E1,1E0,9.2E1,1E0,2.3E1,2.8E1,2.3E1,1.14E2,2.6E1,1.13E2,7.1E1,2.5E1,8.707316E0,1.12E2,6.8E1,-6.0842757E0,-6.855857E0,-6.2330832E0,-5.497507E0,-5.6291656E0,-4.8989806E0,-4.414753E0,-3.0767918E0,-4.5595903E0,-6.8866205E0,-4.707873E0,-3.6501248E0,-2.9712343E0,-4.473665E0,-2.7052329E0,-1.3342557E0,-1.2898209E0,2.9389458E-2,-3.6736557E0,-1.8789445E0,-1.2569758E0,2.436973E-1,7.492292E-1,3.74741E0,-2.5269288E-1,9.8283833E-1,2.612064E0,4.969505E0,2.3192558E0,9.0388536E-1,4.0785594E0,5.6464534E0,-1.5882596E0,3.0209846E0,-4.7042444E-1,1.1198709E0,1.9140491E0,-7.360124E-1,1.9720114E0,4.5484223E0,3.471E0,7.273616E-1,2.780418E0,4.7726665E0,3.9408991E0,7.2138886E0,6.496428E0,9.8174305E0,3.5154738E0,6.823197E0,5.1035566E0,7.2050447E0,6.1250224E0,9.967634E0,9.47397E0,1.2433367E1,5.893013E0,7.243633E0,8.511853E0,1.1057942E1,1.22559E1,1.6591518E1],"split_indices":[3,3,4,3,4,4,3,4,4,1,1,4,1,1,1,4,3,4,1,0,2,4,0,4,1,1,0,1,0,3,2,0,3,3,1,0,1,0,4,3,2,3,1,1,4,2,4,2,1,0,2,0,3,3,3,4,3,4,1,1,0,4,1,0,0,0,0,0,0,0,0,0,0,0,0,0,0,0,0,0,0,0,0,0,0,0,0,0,0,0,0,0,0,0,0,0,0,0,0,0,0,0,0,0,0,0,0,0,0,0,0,0,0,0,0,0,0,0,0,0,0,0,0,0,0],"split_type":[0,0,0,0,0,0,0,0,0,0,0,0,0,0,0,0,0,0,0,0,0,0,0,0,0,0,0,0,0,0,0,0,0,0,0,0,0,0,0,0,0,0,0,0,0,0,0,0,0,0,0,0,0,0,0,0,0,0,0,0,0,0,0,0,0,0,0,0,0,0,0,0,0,0,0,0,0,0,0,0,0,0,0,0,0,0,0,0,0,0,0,0,0,0,0,0,0,0,0,0,0,0,0,0,0,0,0,0,0,0,0,0,0,0,0,0,0,0,0,0,0,0,0,0,0],"sum_hessian":[1.2E4,7.693E3,4.307E3,4.718E3,2.975E3,2.109E3,2.198E3,3.05E3,1.668E3,2.175E3,8E2,6.34E2,1.475E3,1.72E3,4.78E2,1.023E3,2.027E3,3.22E2,1.346E3,1.072E3,1.103E3,6.63E2,1.37E2,1.22E2,5.12E2,1.236E3,2.39E2,1.371E3,3.49E2,1.46E2,3.32E2,3.54E2,6.69E2,1.031E3,9.96E2,4.2E1,2.8E2,3.51E2,9.95E2,5.43E2,5.29E2,9.26E2,1.77E2,5.9E2,7.3E1,6.3E1,7.4E1,7.5E1,4.7E1,1.66E2,3.46E2,3.52E2,8.84E2,1.16E2,1.23E2,4.14E2,9.57E2,1.68E2,1.81E2,1E2,4.6E1,1.93E2,1.39E2,1.8E2,1.74E2,1.83E2,4.86E2,4.79E2,5.52E2,9.04E2,9.2E1,1.6E1,2.6E1,1.11E2,1.69E2,1.69E2,1.82E2,8.24E2,1.71E2,3.39E2,2.04E2,2.22E2,3.07E2,4.48E2,4.78E2,1.19E2,5.8E1,2.12E2,3.78E2,5.2E1,2.1E1,3.3E1,3E1,4.7E1,2.7E1,7.2E1,3E0,2.2E1,2.5E1,9.1E1,7.5E1,2.83E2,6.3E1,1.53E2,1.99E2,3.06E2,5.78E2,9.8E1,1.8E1,4.8E1,7.5E1,3.78E2,3.6E1,4.82E2,4.75E2,1.39E2,2.9E1,1.2E2,6.1E1,4.5E1,5.5E1,1.18E2,7.5E1,1.13E2,2.6E1],"tree_param":{"num_deleted":"0","num_feature":"6","num_nodes":"125","size_leaf_vector":"1"}},{"base_weights":[4.1019585E-2,-8.37882E0,9.69251E0,-1.1675054E1,-4.5281534E0,3.3545065E0,1.4742283E1,-1.3195168E1,-9.988495E0,-1.0889672E1,-3.7496412E0,-1.9482542E0,4.5049567E0,1.1973619E1,2.026274E1,-1.3926017E1,-1.1170966E1,-1.0424021E1,-6.7801867E0,-8.804359E0,-1.3025165E1,-6.110146E0,-2.1616282E0,-8.340268E0,-7.0585304E-1,3.3140814E0,9.921386E0,7.4929075E0,1.4133353E1,1.8710861E1,2.9767387E1,-1.4617681E1,-1.2566808E1,-1.200569E1,-9.504602E0,-1.0997359E1,-8.239714E0,-7.3424897E0,-3.2307382E0,-3.651684E0,-7.9092417E0,-1.5425216E1,-9.098875E0,-6.7802773E0,-1.5458288E0,-5.4652247E0,-9.3524164E-1,-4.6646156E0,-1.1330831E1,-5.253196E0,2.7405077E-1,2.1597536E0,6.8080206E0,5.3040195E0,1.2845402E1,-1.0295428E0,8.38437E0,1.2574462E1,2.1646904E1,1.6351381E1,2.4869194E1,2.379344E1,3.609425E1,-4.0169992E0,-4.821763E0,-4.2447805E0,-3.5081568E0,-3.259477E0,-3.9113429E0,-3.532946E0,-2.6700463E0,-2.951912E0,-3.665098E0,-2.7658596E0,-1.7858037E0,-2.3155744E0,-1.1782559E0,-1.2663236E0,3.807236E-1,-1.8431728E0,-2.563206E0,-5.299157E0,-3.510131E0,-2.9815333E0,-1.7416986E0,-2.6076415E0,-1.8103728E0,-1.5408403E0,5.891939E-1,-6.789213E-1,-2.5153203E0,-4.1330615E-1,1.7161727E0,-3.848427E0,-1.1260563E0,-4.9902015E0,-2.411842E0,-2.5917333E-1,-2.8076634E0,-1.3263734E-1,1.8701619E0,1.4186082E0,2.4787642E-1,1.3086863E0,3.227579E0,4.1981706E-1,2.1909769E0,3.2414541E0,5.333389E0,-1.0366458E0,1.380481E0,2.1280065E0,4.1563663E0,2.496713E0,4.2975717E0,5.7106533E0,9.572916E0,4.6220074E0,7.9478006E0,6.581555E0,9.910168E0,7.4737453E0,2.7132235E0,5.5816255E0,1.1156078E1],"categories":[],"categories_nodes":[],"categories_segments":[],"categories_sizes":[],"default_left":[0,0,0,0,0,0,0,0,0,0,0,0,0,0,0,0,0,0,0,0,0,0,0,0,0,0,0,0,0,0,0,0,0,0,0,0,0,0,0,0,0,0,0,0,0,0,0,0,0,0,0,0,0,0,0,0,0,0,0,0,0,0,0,0,0,0,0,0,0,0,0,0,0,0,0,0,0,0,0,0,0,0,0,0,0,0,0,0,0,0,0,0,0,0,0,0,0,0,0,0,0,0,0,0,0,0,0,0,0,0,0,0,0,0,0,0,0,0,0,0,0,0,0,0,0],"id":5,"left_children":[1,3,5,7,9,11,13,15,17,19,21,23,25,27,29,31,33,35,37,39,41,43,45,47,49,51,53,55,57,59,61,63,65,67,69,71,73,75,77,-1,79,81,83,85,87,89,91,93,95,97,99,101,103,105,107,109,111,113,115,117,119,121,123,-1,-1,-1,-1,-1,-1,-1,-1,-1,-1,-1,-1,-1,-1,-1,-1,-1,-1,-1,-1,-1,-1,-1,-1,-1,-1,-1,-1,-1,-1,-1,-1,-1,-1,-1,-1,-1,-1,-1,-1,-1,-1,-1,-1,-1,-1,-1,-1,-1,-1,-1,-1,-1,-1,-1,-1,-1,-1,-1,-1,-1,-1],"loss_changes":[9.7533044E5,8.130734E4,1.7892519E5,8.720875E3,1.460873E4,1.5144271E4,4.7322062E4,2.5265312E3,2.2222969E3,1.3192422E3,9.871621E3,3.5121738E3,1.311927E4,1.9974188E4,1.4753594E4,1.0647969E3,5.6189844E2,1.7165156E3,3.7345508E2,4.0416406E2,1.3391055E3,3.2317305E3,6.388134E3,7.3858936E2,1.6590562E3,6.732758E3,4.886828E3,5.1521016E3,1.6114E4,1.2598156E4,4.5838594E3,1.3458281E3,4.6307812E2,2.3510938E2,1.245166E2,1.489375E3,6.263457E2,1.8930762E2,1.3459103E2,0E0,9.7666016E1,5.938164E2,1.13723145E2,1.264875E3,1.736463E3,3.9724727E3,3.400332E3,2.0473132E2,5.4700195E2,1.1813013E3,1.3131172E3,4.3090234E3,3.9628203E3,1.1138838E3,2.062504E3,9.0385516E2,4.230785E3,8.523797E3,5.7978516E3,5.819078E3,5.1615938E3,1.0455898E3,6.075703E2,0E0,0E0,0E0,0E0,0E0,0E0,0E0,0E0,0E0,0E0,0E0,0E0,0E0,0E0,0E0,0E0,0E0,0E0,0E0,0E0,0E0,0E0,0E0,0E0,0E0,0E0,0E0,0E0,0E0,0E0,0E0,0E0,0E0,0E0,0E0,0E0,0E0,0E0,0E0,0E0,0E0,0E0,0E0,0E0,0E0,0E0,0E0,0E0,0E0,0E0,0E0,0E0,0E0,0E0,0E0,0E0,0E0,0E0,0E0,0E0,0E0,0E0],"parents":[2147483647,0,0,1,1,2,2,3,3,4,4,5,5,6,6,7,7,8,8,9,9,10,10,11,11,12,12,13,13,14,14,15,15,16,16,17,17,18,18,19,19,20,20,21,21,22,22,23,23,24,24,25,25,26,26,27,27,28,28,29,29,30,30,31,31,32,32,33,33,34,34,35,35,36,36,37,37,38,38,40,40,41,41,42,42,43,43,44,44,45,45,46,46,47,47,48,48,49,49,50,50,51,51,52,52,53,53,54,54,55,55,56,56,57,57,58,58,59,59,60,60,61,61,62,62],"right_children":[2,4,6,8,10,12,14,16,18,20,22,24,26,28,30,32,34,36,38,40,42,44,46,48,50,52,54,56,58,60,62,64,66,68,70,72,74,76,78,-1,80,82,84,86,88,90,92,94,96,98,100,102,104,106,108,110,112,114,116,118,120,122,124,-1,-1,-1,-1,-1,-1,-1,-1,-1,-1,-1,-1,-1,-1,-1,-1,-1,-1,-1,-1,-1,-1,-1,-1,-1,-1,-1,-1,-1,-1,-1,-1,-1,-1,-1,-1,-1,-1,-1,-1,-1,-1,-1,-1,-1,-1,-1,-1,-1,-1,-1,-1,-1,-1,-1,-1,-1,-1,-1,-1,-1,-1],"split_conditions":[1.7E1,1E1,2.3E1,6E0,8.7E1,9.5E1,2.8E1,8.7E1,9.4E1,1E0,1.3E1,9E1,9.1E1,1.03E2,6.7E1,4.9E1,4.9E1,6E1,9.9E1,8.3E1,4.5E1,6.7E1,2.8E1,7.5E1,2.6E1,5.5E1,3.8E1,9.5E1,9.1E1,1.12E2,1E0,1E0,3E0,1E0,3E0,1E0,8.7E1,7.1E1,6.4E1,-3.651684E0,5.8E1,8.6E1,6.8E1,2.8E1,1E0,1E0,1.03E2,8.5E1,3.1E1,7.2E1,9.7E1,6.4E1,1E0,2.5E1,6.7E1,6E1,6.1E1,3E1,6.5E1,9.7E1,8.6E1,8E1,1.02E2,-4.0169992E0,-4.821763E0,-4.2447805E0,-3.5081568E0,-3.259477E0,-3.9113429E0,-3.532946E0,-2.6700463E0,-2.951912E0,-3.665098E0,-2.7658596E0,-1.7858037E0,-2.3155744E0,-1.1782559E0,-1.2663236E0,3.807236E-1,-1.8431728E0,-2.563206E0,-5.299157E0,-3.510131E0,-2.9815333E0,-1.7416986E0,-2.6076415E0,-1.8103728E0,-1.5408403E0,5.891939E-1,-6.789213E-1,-2.5153203E0,-4.1330615E-1,1.7161727E0,-3.848427E0,-1.1260563E0,-4.9902015E0,-2.411842E0,-2.5917333E-1,-2.8076634E0,-1.3263734E-1,1.8701619E0,1.4186082E0,2.4787642E-1,1.3086863E0,3.227579E0,4.1981706E-1,2.1909769E0,3.2414541E0,5.333389E0,-1.0366458E0,1.380481E0,2.1280065E0,4.1563663E0,2.496713E0,4.2975717E0,5.7106533E0,9.572916E0,4.6220074E0,7.9478006E0,6.581555E0,9.910168E0,7.4737453E0,2.7132235E0,5.5816255E0,1.1156078E1],"split_indices":[3,3,3,3,4,4,3,4,4,0,3,4,2,4,1,1,1,1,4,4,1,1,1,2,1,1,1,4,2,4,0,0,3,0,3,0,2,1,1,0,2,2,1,1,0,0,4,4,1,2,2,2,0,1,1,1,1,1,1,2,2,2,4,0,0,0,0,0,0,0,0,0,0,0,0,0,0,0,0,0,0,0,0,0,0,0,0,0,0,0,0,0,0,0,0,0,0,0,0,0,0,0,0,0,0,0,0,0,0,0,0,0,0,0,0,0,0,0,0,0,0,0,0,0,0],"split_type":[0,0,0,0,0,0,0,0,0,0,0,0,0,0,0,0,0,0,0,0,0,0,0,0,0,0,0,0,0,0,0,0,0,0,0,0,0,0,0,0,0,0,0,0,0,0,0,0,0,0,0,0,0,0,0,0,0,0,0,0,0,0,0,0,0,0,0,0,0,0,0,0,0,0,0,0,0,0,0,0,0,0,0,0,0,0,0,0,0,0,0,0,0,0,0,0,0,0,0,0,0,0,0,0,0,0,0,0,0,0,0,0,0,0,0,0,0,0,0,0,0,0,0,0,0],"sum_hessian":[1.2E4,6.409E3,5.591E3,3.452E3,2.957E3,2.48E3,3.111E3,1.812E3,1.64E3,3.21E2,2.636E3,4.42E2,2.038E3,2.074E3,1.037E3,1.327E3,4.85E2,1.442E3,1.98E2,1.65E2,1.56E2,1.059E3,1.577E3,7.1E1,3.71E2,1.672E3,3.66E2,6.76E2,1.398E3,8.94E2,1.43E2,8.73E2,4.54E2,3.19E2,1.66E2,1.139E3,3.03E2,1.7E2,2.8E1,3.2E1,1.33E2,9.5E1,6.1E1,9.23E2,1.36E2,4.26E2,1.151E3,3.3E1,3.8E1,6.5E1,3.06E2,1.258E3,4.14E2,1.43E2,2.23E2,6.4E1,6.12E2,1.16E3,2.38E2,6.49E2,2.45E2,7.6E1,6.7E1,4.79E2,3.94E2,1.56E2,2.98E2,1.57E2,1.62E2,3.1E1,1.35E2,5.89E2,5.5E2,2.1E2,9.3E1,1.52E2,1.8E1,2.3E1,5E0,3.8E1,9.5E1,5.7E1,3.8E1,4.7E1,1.4E1,2.56E2,6.67E2,6.7E1,6.9E1,2.04E2,2.22E2,1.08E3,7.1E1,2E0,3.1E1,1.3E1,2.5E1,3.2E1,3.3E1,2.74E2,3.2E1,4.29E2,8.29E2,2.57E2,1.57E2,4.9E1,9.4E1,1.6E2,6.3E1,4.5E1,1.9E1,4.97E2,1.15E2,3.4E2,8.2E2,1.92E2,4.6E1,5.96E2,5.3E1,1.83E2,6.2E1,7E1,6E0,5E0,6.2E1],"tree_param":{"num_deleted":"0","num_feature":"6","num_nodes":"125","size_leaf_vector":"1"}},{"base_weights":[2.9880257E-2,-5.091902E0,7.9152074E0,-7.3005424E0,-1.0154098E0,5.2161603E0,1.2925036E1,-8.823976E0,-5.4029183E0,-1.8330262E0,2.9244637E0,3.7148905E0,9.3640175E0,1.1833197E1,2.214394E1,-9.870669E0,-7.7187333E0,-6.0533814E0,-3.0650616E0,-3.611427E0,-5.6249764E-2,-5.159223E-1,6.462353E0,2.9213837E-1,4.9393315E0,8.318292E0,1.6684566E1,1.0487459E1,1.7593374E1,2.0049353E1,3.8176136E1,-1.1207919E1,-9.243733E0,-8.933943E0,-6.9951153E0,-7.408432E0,-4.9958463E0,-3.5947983E0,3.301821E-1,-7.660149E0,-2.9658794E0,-7.076367E-1,3.7557774E0,-2.0440388E0,1.3993826E0,-3.069662E0,7.339971E0,2.7804058E0,-2.3785796E0,3.630941E0,8.3945875E0,2.3261778E0,9.332759E0,1.210287E1,6.569874E0,9.791788E0,1.898179E1,1.3973575E1,2.0657806E1,1.56977215E1,2.6059544E1,4.274634E0,4.0152954E1,-2.9539237E0,-3.820359E0,-3.4317782E0,-2.690217E0,-2.3436677E0,-3.0469325E0,-2.5389683E0,-1.956443E0,-1.7603647E0,-2.6585612E0,-1.6170721E0,-7.122105E-1,-1.2517087E0,-2.7653056E-1,-4.019147E-1,1.5957717E0,-1.5636404E0,-2.9442325E0,-1.5731965E-1,-1.139767E0,-1.0942243E0,-4.417868E-3,8.300047E-1,2.286873E0,-5.968947E-2,-9.027454E-1,1.010294E0,-7.6418216E-3,-2.2064137E0,1.2852955E-2,1.5882579E0,3.2860706E0,2.2664252E-1,1.4600928E0,-1.745723E0,2.3444037E-1,4.4167998E-1,1.5215998E0,2.2508802E0,5.57664E0,1.9956361E0,-1.9901189E-1,2.2067404E0,3.4173536E0,3.7475827E0,-1.3944123E0,2.681928E0,4.851667E0,3.5223165E0,6.226226E0,2.7329006E0,4.737354E0,5.4970746E0,7.7957444E0,3.9248767E0,5.7904997E0,6.9131837E0,9.341103E0,6.0135684E0,1.2908986E1],"categories":[],"categories_nodes":[],"categories_segments":[],"categories_sizes":[],"default_left":[0,0,0,0,0,0,0,0,0,0,0,0,0,0,0,0,0,0,0,0,0,0,0,0,0,0,0,0,0,0,0,0,0,0,0,0,0,0,0,0,0,0,0,0,0,0,0,0,0,0,0,0,0,0,0,0,0,0,0,0,0,0,0,0,0,0,0,0,0,0,0,0,0,0,0,0,0,0,0,0,0,0,0,0,0,0,0,0,0,0,0,0,0,0,0,0,0,0,0,0,0,0,0,0,0,0,0,0,0,0,0,0,0,0,0,0,0,0,0,0,0,0,0],"id":6,"left_children":[1,3,5,7,9,11,13,15,17,19,21,23,25,27,29,31,33,35,37,39,41,43,45,47,49,51,53,55,57,59,61,63,65,67,69,71,73,75,77,79,81,83,85,87,89,91,93,95,97,99,101,103,105,107,-1,109,111,113,115,117,119,-1,121,-1,-1,-1,-1,-1,-1,-1,-1,-1,-1,-1,-1,-1,-1,-1,-1,-1,-1,-1,-1,-1,-1,-1,-1,-1,-1,-1,-1,-1,-1,-1,-1,-1,-1,-1,-1,-1,-1,-1,-1,-1,-1,-1,-1,-1,-1,-1,-1,-1,-1,-1,-1,-1,-1,-1,-1,-1,-1,-1,-1],"loss_changes":[4.8472384E5,6.5502094E4,6.3836438E4,1.3594484E4,8.245459E3,1.9100945E4,1.6386438E4,2.950125E3,3.1809727E3,6.6954575E3,5.358885E3,9.461742E3,6.107922E3,1.1295734E4,5.0776562E3,1.0198125E3,1.0604375E3,2.3202969E3,8.2853613E2,2.745129E3,2.6372317E3,6.584656E2,1.8378359E3,3.9673079E3,7.4876484E3,4.330711E3,2.148205E3,6.9229844E3,2.8061875E3,3.6709727E3,3.2657422E2,7.538125E2,4.5439062E2,5.6927734E2,5.045703E2,1.5579102E3,9.4574414E2,6.10604E2,5.3199274E2,7.134209E2,1.8596606E3,1.8475078E3,5.7177905E2,2.219892E2,2.8053488E2,2.5372269E2,1.4131416E3,1.3018975E3,3.1357222E3,3.7503496E3,4.0054375E3,1.3623384E3,2.4066875E3,4.2303223E2,0E0,5.9114766E3,9.112715E2,1.01427344E3,1.3769219E3,6.2387305E2,2.6241797E2,0E0,1.2090039E2,0E0,0E0,0E0,0E0,0E0,0E0,0E0,0E0,0E0,0E0,0E0,0E0,0E0,0E0,0E0,0E0,0E0,0E0,0E0,0E0,0E0,0E0,0E0,0E0,0E0,0E0,0E0,0E0,0E0,0E0,0E0,0E0,0E0,0E0,0E0,0E0,0E0,0E0,0E0,0E0,0E0,0E0,0E0,0E0,0E0,0E0,0E0,0E0,0E0,0E0,0E0,0E0,0E0,0E0,0E0,0E0,0E0,0E0,0E0,0E0],"parents":[2147483647,0,0,1,1,2,2,3,3,4,4,5,5,6,6,7,7,8,8,9,9,10,10,11,11,12,12,13,13,14,14,15,15,16,16,17,17,18,18,19,19,20,20,21,21,22,22,23,23,24,24,25,25,26,26,27,27,28,28,29,29,30,30,31,31,32,32,33,33,34,34,35,35,36,36,37,37,38,38,39,39,40,40,41,41,42,42,43,43,44,44,45,45,46,46,47,47,48,48,49,49,50,50,51,51,52,52,53,53,55,55,56,56,57,57,58,58,59,59,60,60,62,62],"right_children":[2,4,6,8,10,12,14,16,18,20,22,24,26,28,30,32,34,36,38,40,42,44,46,48,50,52,54,56,58,60,62,64,66,68,70,72,74,76,78,80,82,84,86,88,90,92,94,96,98,100,102,104,106,108,-1,110,112,114,116,118,120,-1,122,-1,-1,-1,-1,-1,-1,-1,-1,-1,-1,-1,-1,-1,-1,-1,-1,-1,-1,-1,-1,-1,-1,-1,-1,-1,-1,-1,-1,-1,-1,-1,-1,-1,-1,-1,-1,-1,-1,-1,-1,-1,-1,-1,-1,-1,-1,-1,-1,-1,-1,-1,-1,-1,-1,-1,-1,-1,-1,-1,-1],"split_conditions":[1.9E1,1.3E1,1.07E2,8E0,6.3E1,2.6E1,1.15E2,8.5E1,9.5E1,9.6E1,1E0,2.9E1,6.8E1,6.2E1,1.2E2,3.1E1,3.3E1,3.7E1,9.4E1,8.8E1,1.04E2,9.6E1,8.8E1,1E0,8.6E1,1E2,1E0,3E1,1E0,4.3E1,2.4E1,1E0,2E0,1E0,4E0,1E0,9.4E1,1E2,6.1E1,1E0,6.4E1,2.5E1,1.08E2,6.1E1,6.3E1,8.4E1,7.3E1,2.2E1,8.4E1,1E2,7.4E1,6.9E1,3.8E1,8.4E1,6.569874E0,9.4E1,2.8E1,2.5E1,7.4E1,8E1,8.5E1,4.274634E0,2.7E1,-2.9539237E0,-3.820359E0,-3.4317782E0,-2.690217E0,-2.3436677E0,-3.0469325E0,-2.5389683E0,-1.956443E0,-1.7603647E0,-2.6585612E0,-1.6170721E0,-7.122105E-1,-1.2517087E0,-2.7653056E-1,-4.019147E-1,1.5957717E0,-1.5636404E0,-2.9442325E0,-1.5731965E-1,-1.139767E0,-1.0942243E0,-4.417868E-3,8.300047E-1,2.286873E0,-5.968947E-2,-9.027454E-1,1.010294E0,-7.6418216E-3,-2.2064137E0,1.2852955E-2,1.5882579E0,3.2860706E0,2.2664252E-1,1.4600928E0,-1.745723E0,2.3444037E-1,4.4167998E-1,1.5215998E0,2.2508802E0,5.57664E0,1.9956361E0,-1.9901189E-1,2.2067404E0,3.4173536E0,3.7475827E0,-1.3944123E0,2.681928E0,4.851667E0,3.5223165E0,6.226226E0,2.7329006E0,4.737354E0,5.4970746E0,7.7957444E0,3.9248767E0,5.7904997E0,6.9131837E0,9.341103E0,6.0135684E0,1.2908986E1],"split_indices":[3,3,4,3,1,3,4,4,4,4,0,1,1,1,4,1,1,1,2,4,4,4,4,0,2,4,0,3,0,1,1,0,3,0,3,0,2,4,1,0,2,1,4,2,2,4,1,3,2,4,1,2,1,2,0,2,1,3,1,2,2,0,3,0,0,0,0,0,0,0,0,0,0,0,0,0,0,0,0,0,0,0,0,0,0,0,0,0,0,0,0,0,0,0,0,0,0,0,0,0,0,0,0,0,0,0,0,0,0,0,0,0,0,0,0,0,0,0,0,0,0,0,0],"split_type":[0,0,0,0,0,0,0,0,0,0,0,0,0,0,0,0,0,0,0,0,0,0,0,0,0,0,0,0,0,0,0,0,0,0,0,0,0,0,0,0,0,0,0,0,0,0,0,0,0,0,0,0,0,0,0,0,0,0,0,0,0,0,0,0,0,0,0,0,0,0,0,0,0,0,0,0,0,0,0,0,0,0,0,0,0,0,0,0,0,0,0,0,0,0,0,0,0,0,0,0,0,0,0,0,0,0,0,0,0,0,0,0,0,0,0,0,0,0,0,0,0,0,0],"sum_hessian":[1.2E4,7.275E3,4.725E3,4.718E3,2.557E3,3.072E3,1.653E3,2.615E3,2.103E3,2.118E3,4.39E2,2.257E3,8.15E2,1.48E3,1.73E2,1.339E3,1.276E3,1.644E3,4.59E2,1.058E3,1.06E3,2.23E2,2.16E2,5.95E2,1.662E3,7.15E2,1E2,1.202E3,2.78E2,1.55E2,1.8E1,4.22E2,9.17E2,4.72E2,8.04E2,7.18E2,9.26E2,3.97E2,6.2E1,1.44E2,9.14E2,9.06E2,1.54E2,1.24E2,9.9E1,1.8E1,1.98E2,3.08E2,2.87E2,1.207E3,4.55E2,1.04E2,6.11E2,5.5E1,4.5E1,1.113E3,8.9E1,1.3E2,1.48E2,9.2E1,6.3E1,2E0,1.6E1,2.27E2,1.95E2,9.8E1,8.19E2,2.5E2,2.22E2,1.92E2,6.12E2,3.51E2,3.67E2,8.04E2,1.22E2,3.26E2,7.1E1,4.7E1,1.5E1,6.9E1,7.5E1,2.33E2,6.81E2,1.72E2,7.34E2,1.24E2,3E1,4.3E1,8.1E1,4.1E1,5.8E1,7E0,1.1E1,1.28E2,7E1,1.57E2,1.51E2,1.37E2,1.5E2,4.84E2,7.23E2,4.2E2,3.5E1,4.2E1,6.2E1,3.14E2,2.97E2,5.4E1,1E0,9.84E2,1.29E2,1.9E1,7E1,3.7E1,9.3E1,1.06E2,4.2E1,5.6E1,3.6E1,4.3E1,2E1,3E0,1.3E1],"tree_param":{"num_deleted":"0","num_feature":"6","num_nodes":"123","size_leaf_vector":"1"}},{"base_weights":[2.7797759E-2,-3.1127012E0,6.569354E0,-4.7460423E0,4.3967593E-1,5.0622134E0,1.0698978E1,-5.796695E0,-2.7774844E0,-2.492584E0,1.1279072E0,4.529841E0,1.1353543E1,6.721484E0,1.2394385E1,-7.4984045E0,-5.2335777E0,-3.1904275E0,-5.60147E-1,-7.853696E-2,-4.7154865E0,6.7878276E-1,5.5427027E0,4.091148E0,1.1109364E1,7.1857715E0,1.584671E1,4.544486E0,7.8787513E0,9.431737E0,1.5188779E1,-6.7430077E0,-8.262472E0,-6.198229E0,-4.3854914E0,-1.7544578E0,-3.6418064E0,-1.4855535E0,2.2975738E0,-1.3261305E0,1.3398969E0,-1.0275184E1,-3.715561E0,-1.1906718E0,1.4448344E0,2.4621873E0,6.502989E0,6.9632797E0,3.2080555E0,5.60034E0,1.2726368E1,-2.3107934E0,8.60498E0,1.3073122E1,5.2185245E0,8.070443E0,3.1990814E0,7.546128E0,4.512954E0,1.1524685E1,6.5469594E0,1.4493652E1,9.593563E0,-2.3775837E0,-1.8470452E0,-2.9084716E0,-2.1888855E0,-2.0897763E0,-1.6963884E0,-1.4890213E0,-8.4749913E-1,-1.0855951E0,-3.5848412E-1,-1.4847869E0,-8.560904E-1,-1.2439667E0,-3.063333E-1,-4.1338575E-1,1.2162756E0,-1.3926942E0,-2.390284E-1,7.026156E-1,-1.8616682E-1,-3.806949E0,-2.314858E0,-1.5905738E0,-2.5228977E-1,-2.335223E0,-2.4598801E-1,3.0878803E-1,1.3027444E0,-1.4399758E-1,1.117479E0,1.676584E0,2.8671708E0,1.4665538E0,2.6531644E0,-3.719654E-1,1.2253058E0,-1.3679299E0,1.8818316E0,2.8013175E0,4.367435E0,8.872135E-1,-1.1262048E0,3.4127247E0,1.4953718E0,4.043262E0,1.7585279E0,2.519967E0,-2.2253038E-1,6.854789E-1,2.362606E0,3.010486E0,2.0652115E0,3.1802275E0,5.7345767E0,1.3922144E0,2.9195814E0,3.6377718E0,5.1033463E0],"categories":[],"categories_nodes":[],"categories_segments":[],"categories_sizes":[],"default_left":[0,0,0,0,0,0,0,0,0,0,0,0,0,0,0,0,0,0,0,0,0,0,0,0,0,0,0,0,0,0,0,0,0,0,0,0,0,0,0,0,0,0,0,0,0,0,0,0,0,0,0,0,0,0,0,0,0,0,0,0,0,0,0,0,0,0,0,0,0,0,0,0,0,0,0,0,0,0,0,0,0,0,0,0,0,0,0,0,0,0,0,0,0,0,0,0,0,0,0,0,0,0,0,0,0,0,0,0,0,0,0,0,0,0,0,0,0,0,0,0,0],"id":7,"left_children":[1,3,5,7,9,11,13,15,17,19,21,23,25,27,29,31,33,35,37,39,41,43,45,47,49,51,53,55,57,59,61,63,65,67,69,71,73,75,77,79,81,83,85,87,89,91,93,95,97,99,101,103,105,107,-1,109,111,113,-1,115,117,119,-1,-1,-1,-1,-1,-1,-1,-1,-1,-1,-1,-1,-1,-1,-1,-1,-1,-1,-1,-1,-1,-1,-1,-1,-1,-1,-1,-1,-1,-1,-1,-1,-1,-1,-1,-1,-1,-1,-1,-1,-1,-1,-1,-1,-1,-1,-1,-1,-1,-1,-1,-1,-1,-1,-1,-1,-1,-1,-1],"loss_changes":[2.46566E5,4.7052484E4,2.4175562E4,1.1473156E4,5.1589873E3,9.5075625E3,6.9299062E3,3.430625E3,1.7699639E3,2.6075989E3,4.100618E3,7.554414E3,4.043412E3,7.527578E2,5.8837188E3,4.6258984E2,2.2013438E3,1.0507695E3,8.1000195E2,4.1587003E2,1.3683203E3,2.6940654E3,5.489995E2,6.2424688E3,1.3896582E3,1.5967646E3,2.278125E2,5.007478E2,3.702422E2,2.073963E3,3.8897969E3,2.6792383E2,5.409922E2,4.914375E2,1.2963379E3,4.045459E2,1.2637227E3,2.812547E2,4.8984024E2,2.1573688E2,2.1756795E2,1.3688696E2,9.8052686E2,1.3306235E3,1.6017881E3,1.7640305E2,3.5153467E2,2.2198145E3,7.3756484E3,2.9504956E2,6.4616016E2,1.3275235E2,9.6649023E2,4.3486816E1,0E0,9.332568E1,3.3254077E2,2.5389258E2,0E0,1.2350586E3,8.776821E2,1.9396172E3,0E0,0E0,0E0,0E0,0E0,0E0,0E0,0E0,0E0,0E0,0E0,0E0,0E0,0E0,0E0,0E0,0E0,0E0,0E0,0E0,0E0,0E0,0E0,0E0,0E0,0E0,0E0,0E0,0E0,0E0,0E0,0E0,0E0,0E0,0E0,0E0,0E0,0E0,0E0,0E0,0E0,0E0,0E0,0E0,0E0,0E0,0E0,0E0,0E0,0E0,0E0,0E0,0E0,0E0,0E0,0E0,0E0,0E0,0E0],"parents":[2147483647,0,0,1,1,2,2,3,3,4,4,5,5,6,6,7,7,8,8,9,9,10,10,11,11,12,12,13,13,14,14,15,15,16,16,17,17,18,18,19,19,20,20,21,21,22,22,23,23,24,24,25,25,26,26,27,27,28,28,29,29,30,30,31,31,32,32,33,33,34,34,35,35,36,36,37,37,38,38,39,39,40,40,41,41,42,42,43,43,44,44,45,45,46,46,47,47,48,48,49,49,50,50,51,51,52,52,53,53,55,55,56,56,57,57,59,59,60,60,61,61],"right_children":[2,4,6,8,10,12,14,16,18,20,22,24,26,28,30,32,34,36,38,40,42,44,46,48,50,52,54,56,58,60,62,64,66,68,70,72,74,76,78,80,82,84,86,88,90,92,94,96,98,100,102,104,106,108,-1,110,112,114,-1,116,118,120,-1,-1,-1,-1,-1,-1,-1,-1,-1,-1,-1,-1,-1,-1,-1,-1,-1,-1,-1,-1,-1,-1,-1,-1,-1,-1,-1,-1,-1,-1,-1,-1,-1,-1,-1,-1,-1,-1,-1,-1,-1,-1,-1,-1,-1,-1,-1,-1,-1,-1,-1,-1,-1,-1,-1,-1,-1,-1,-1],"split_conditions":[2.1E1,1.5E1,1.09E2,9.1E1,2.6E1,7.2E1,3E1,8.2E1,9.3E1,1E0,9.8E1,9.8E1,1E0,2.3E1,1E0,1E0,7E0,6.2E1,6.3E1,9.8E1,9.2E1,9.5E1,3.9E1,6.2E1,3E1,9.8E1,7.5E1,6.3E1,1.18E2,6.5E1,1.19E2,7.8E1,3.6E1,3.5E1,5.6E1,9E0,3.3E1,2.5E1,9E0,9E1,6.6E1,8.1E1,8.8E1,8.6E1,6.8E1,9.3E1,1.02E2,2.5E1,2.5E1,9.4E1,2.4E1,5.9E1,6.6E1,1.07E2,5.2185245E0,1E0,1.15E2,5.9E1,4.512954E0,1.17E2,5.8E1,1.12E2,9.593563E0,-2.3775837E0,-1.8470452E0,-2.9084716E0,-2.1888855E0,-2.0897763E0,-1.6963884E0,-1.4890213E0,-8.4749913E-1,-1.0855951E0,-3.5848412E-1,-1.4847869E0,-8.560904E-1,-1.2439667E0,-3.063333E-1,-4.1338575E-1,1.2162756E0,-1.3926942E0,-2.390284E-1,7.026156E-1,-1.8616682E-1,-3.806949E0,-2.314858E0,-1.5905738E0,-2.5228977E-1,-2.335223E0,-2.4598801E-1,3.0878803E-1,1.3027444E0,-1.4399758E-1,1.117479E0,1.676584E0,2.8671708E0,1.4665538E0,2.6531644E0,-3.719654E-1,1.2253058E0,-1.3679299E0,1.8818316E0,2.8013175E0,4.367435E0,8.872135E-1,-1.1262048E0,3.4127247E0,1.4953718E0,4.043262E0,1.7585279E0,2.519967E0,-2.2253038E-1,6.854789E-1,2.362606E0,3.010486E0,2.0652115E0,3.1802275E0,5.7345767E0,1.3922144E0,2.9195814E0,3.6377718E0,5.1033463E0],"split_indices":[3,3,4,4,1,1,1,4,2,0,2,2,0,1,0,0,3,2,1,4,4,4,1,2,1,4,1,2,4,2,4,4,1,1,1,3,1,1,3,4,2,2,2,4,1,4,4,3,1,4,3,2,2,4,0,0,4,2,0,4,1,4,0,0,0,0,0,0,0,0,0,0,0,0,0,0,0,0,0,0,0,0,0,0,0,0,0,0,0,0,0,0,0,0,0,0,0,0,0,0,0,0,0,0,0,0,0,0,0,0,0,0,0,0,0,0,0,0,0,0,0],"split_type":[0,0,0,0,0,0,0,0,0,0,0,0,0,0,0,0,0,0,0,0,0,0,0,0,0,0,0,0,0,0,0,0,0,0,0,0,0,0,0,0,0,0,0,0,0,0,0,0,0,0,0,0,0,0,0,0,0,0,0,0,0,0,0,0,0,0,0,0,0,0,0,0,0,0,0,0,0,0,0,0,0,0,0,0,0,0,0,0,0,0,0,0,0,0,0,0,0,0,0,0,0,0,0,0,0,0,0,0,0,0,0,0,0,0,0,0,0,0,0,0,0],"sum_hessian":[1.2E4,8.108E3,3.892E3,5.554E3,2.554E3,2.853E3,1.039E3,3.62E3,1.934E3,4.85E2,2.069E3,2.632E3,2.21E2,3.12E2,7.27E2,8.97E2,2.723E3,1.63E3,3.04E2,2.33E2,2.52E2,1.879E3,1.9E2,2.469E3,1.63E2,1.16E2,1.05E2,1.1E2,2.02E2,3.55E2,3.72E2,4.56E2,4.41E2,1.271E3,1.452E3,3.91E2,1.239E3,2.3E2,7.4E1,1.24E2,1.09E2,3.7E1,2.15E2,5.46E2,1.333E3,4.6E1,1.44E2,5.79E2,1.89E3,3.8E1,1.25E2,1.5E1,1.01E2,4.1E1,6.4E1,2.9E1,8.1E1,1.95E2,7E0,2.04E2,1.51E2,3.59E2,1.3E1,1.47E2,3.09E2,1.74E2,2.67E2,5.22E2,7.49E2,1.058E3,3.94E2,8.9E1,3.02E2,4.64E2,7.75E2,3.3E1,1.97E2,2.4E1,5E1,1.6E1,1.08E2,7.2E1,3.7E1,1.7E1,2E1,1.38E2,7.7E1,2.8E1,5.18E2,1.167E3,1.66E2,1.4E1,3.2E1,1.13E2,3.1E1,2.77E2,3.02E2,3.11E2,1.579E3,2E0,3.6E1,4.6E1,7.9E1,3E0,1.2E1,5.6E1,4.5E1,3.8E1,3E0,2.8E1,1E0,6.9E1,1.2E1,3.8E1,1.57E2,1.84E2,2E1,9.6E1,5.5E1,1.88E2,1.71E2],"tree_param":{"num_deleted":"0","num_feature":"6","num_nodes":"121","size_leaf_vector":"1"}},{"base_weights":[2.3651924E-2,-2.4550428E0,4.37445E0,-3.800527E0,-6.951037E-1,2.638582E0,6.9066806E0,-4.4624777E0,-2.6692858E0,-2.0752778E0,3.356664E-1,1.920809E0,5.393169E0,6.191708E0,1.2686681E1,-5.532055E0,-4.1678343E0,-3.0804822E0,8.6107574E-2,-2.2857842E0,6.324045E-1,-7.954425E-2,3.3924792E0,8.025775E-1,3.1090364E0,3.7610064E0,7.723627E0,5.3771243E0,1.0801005E1,1.1016662E1,1.660536E1,-4.581456E0,-6.63878E0,-5.3457522E0,-3.8582845E0,-5.9003444E0,-2.7331777E0,-1.5333191E0,1.9009587E0,-4.05212E0,-2.0735624E0,-1.6522148E0,2.364192E0,2.0627542E0,-4.8088366E-1,3.37455E-2,6.5499744E0,5.945622E-1,6.3759747E0,5.425783E0,2.4054058E0,3.2341104E0,1.1827006E1,7.096987E0,1.3603846E1,4.681194E0,9.601583E0,1.0281009E1,7.9030833E0,8.268313E0,1.2614268E1,6.2703953E0,1.7953817E1,-2.087467E0,-1.3145913E0,-2.1076214E0,-1.4908022E0,-1.9059079E0,-1.4523252E0,-1.5638449E0,-1.0926533E0,-1.1055162E0,-2.3544128E0,-2.9763588E-1,-9.6185595E-1,-2.6596346E-1,-7.724306E-1,2.6913947E-1,1.5536841E0,-6.507399E-1,-1.5957365E0,-7.23852E-1,-3.487088E-1,-9.880903E-1,-1.3078462E-1,-8.218104E-2,1.0587229E0,8.3611155E-1,7.03297E-2,-3.2931447E-1,5.496885E-1,1.5954912E-1,-1.5150285E0,1.7008333E0,2.97065E0,5.5479135E-2,6.992618E-1,1.0001961E0,2.4644773E0,2.2426407E0,1.4454813E0,3.4331536E-1,1.080716E0,7.1819794E-1,1.5933542E0,2.134343E0,4.036426E0,1.4020696E0,2.3883932E0,2.8358383E0,4.842245E0,2.1516159E0,1.1750536E0,2.6645436E0,5.3892875E0,2.303592E0,3.7685497E0,3.2094872E0,1.6889476E0,3.2340083E0,4.4937053E0,1.577591E-1,2.104776E0,1.0129212E0,5.456152E0],"categories":[],"categories_nodes":[],"categories_segments":[],"categories_sizes":[],"default_left":[0,0,0,0,0,0,0,0,0,0,0,0,0,0,0,0,0,0,0,0,0,0,0,0,0,0,0,0,0,0,0,0,0,0,0,0,0,0,0,0,0,0,0,0,0,0,0,0,0,0,0,0,0,0,0,0,0,0,0,0,0,0,0,0,0,0,0,0,0,0,0,0,0,0,0,0,0,0,0,0,0,0,0,0,0,0,0,0,0,0,0,0,0,0,0,0,0,0,0,0,0,0,0,0,0,0,0,0,0,0,0,0,0,0,0,0,0,0,0,0,0,0,0,0,0],"id":8,"left_children":[1,3,5,7,9,11,13,15,17,19,21,23,25,27,29,31,33,35,37,39,41,43,45,47,49,51,53,55,57,59,61,63,65,67,69,71,73,75,77,79,81,83,85,87,89,91,93,95,97,99,101,103,105,107,109,111,113,115,-1,117,119,121,123,-1,-1,-1,-1,-1,-1,-1,-1,-1,-1,-1,-1,-1,-1,-1,-1,-1,-1,-1,-1,-1,-1,-1,-1,-1,-1,-1,-1,-1,-1,-1,-1,-1,-1,-1,-1,-1,-1,-1,-1,-1,-1,-1,-1,-1,-1,-1,-1,-1,-1,-1,-1,-1,-1,-1,-1,-1,-1,-1,-1,-1,-1],"loss_changes":[1.2943314E5,1.810286E4,1.9129078E4,3.232746E3,4.715332E3,5.1025977E3,7.2401875E3,8.379219E2,1.8153438E3,8.0911426E2,2.4092517E3,2.7253545E3,2.0021201E3,5.8667773E3,1.0866523E3,5.871387E2,7.6185547E2,1.3490879E3,6.171696E2,4.8453174E2,4.1142303E2,1.4385587E3,2.407156E3,1.2239629E3,1.6089307E3,1.3047324E3,7.104209E2,3.903379E3,1.6365371E3,5.0602148E2,6.6785254E2,1.20756836E2,1.3871289E2,1.9494824E2,4.7952148E2,6.269165E2,1.02047363E3,7.2485016E1,3.211166E2,3.224668E2,3.6075537E2,8.840225E1,1.8228052E2,3.4894202E2,2.01243E3,2.8375818E2,2.8921045E2,7.2646423E2,1.8518591E2,2.5162549E2,1.1505825E3,5.072898E2,5.0021973E1,3.8171582E2,5.8045654E1,2.1708965E3,9.780781E2,1.2687168E3,0E0,2.859895E2,2.1155078E2,3.0572083E1,1.0527637E2,0E0,0E0,0E0,0E0,0E0,0E0,0E0,0E0,0E0,0E0,0E0,0E0,0E0,0E0,0E0,0E0,0E0,0E0,0E0,0E0,0E0,0E0,0E0,0E0,0E0,0E0,0E0,0E0,0E0,0E0,0E0,0E0,0E0,0E0,0E0,0E0,0E0,0E0,0E0,0E0,0E0,0E0,0E0,0E0,0E0,0E0,0E0,0E0,0E0,0E0,0E0,0E0,0E0,0E0,0E0,0E0,0E0,0E0,0E0,0E0,0E0,0E0],"parents":[2147483647,0,0,1,1,2,2,3,3,4,4,5,5,6,6,7,7,8,8,9,9,10,10,11,11,12,12,13,13,14,14,15,15,16,16,17,17,18,18,19,19,20,20,21,21,22,22,23,23,24,24,25,25,26,26,27,27,28,28,29,29,30,30,31,31,32,32,33,33,34,34,35,35,36,36,37,37,38,38,39,39,40,40,41,41,42,42,43,43,44,44,45,45,46,46,47,47,48,48,49,49,50,50,51,51,52,52,53,53,54,54,55,55,56,56,57,57,59,59,60,60,61,61,62,62],"right_children":[2,4,6,8,10,12,14,16,18,20,22,24,26,28,30,32,34,36,38,40,42,44,46,48,50,52,54,56,58,60,62,64,66,68,70,72,74,76,78,80,82,84,86,88,90,92,94,96,98,100,102,104,106,108,110,112,114,116,-1,118,120,122,124,-1,-1,-1,-1,-1,-1,-1,-1,-1,-1,-1,-1,-1,-1,-1,-1,-1,-1,-1,-1,-1,-1,-1,-1,-1,-1,-1,-1,-1,-1,-1,-1,-1,-1,-1,-1,-1,-1,-1,-1,-1,-1,-1,-1,-1,-1,-1,-1,-1,-1,-1,-1,-1,-1,-1,-1,-1,-1,-1,-1,-1,-1],"split_conditions":[1E2,9.2E1,2.6E1,9E0,1.5E1,8.9E1,3E1,2.7E1,6.7E1,7.3E1,6.8E1,2.2E1,4.8E1,6.5E1,8.4E1,1E0,3E0,8.4E1,1E0,2.3E1,1E0,5.9E1,1E0,1.1E2,6E1,1.12E2,1.07E2,9.3E1,1.18E2,3.5E1,2.5E1,2E0,9.4E1,2E0,8E1,1.1E1,6.2E1,6.7E1,1.5E1,1E0,8.6E1,1.2E1,9E0,4.8E1,9.1E1,7.7E1,7.7E1,5.9E1,2.9E1,5.2E1,3.8E1,2.3E1,2.8E1,1.9E1,2.1E1,6E1,1.1E2,1E0,7.9030833E0,6.7E1,1.11E2,8.7E1,4.06E1,-2.087467E0,-1.3145913E0,-2.1076214E0,-1.4908022E0,-1.9059079E0,-1.4523252E0,-1.5638449E0,-1.0926533E0,-1.1055162E0,-2.3544128E0,-2.9763588E-1,-9.6185595E-1,-2.6596346E-1,-7.724306E-1,2.6913947E-1,1.5536841E0,-6.507399E-1,-1.5957365E0,-7.23852E-1,-3.487088E-1,-9.880903E-1,-1.3078462E-1,-8.218104E-2,1.0587229E0,8.3611155E-1,7.03297E-2,-3.2931447E-1,5.496885E-1,1.5954912E-1,-1.5150285E0,1.7008333E0,2.97065E0,5.5479135E-2,6.992618E-1,1.0001961E0,2.4644773E0,2.2426407E0,1.4454813E0,3.4331536E-1,1.080716E0,7.1819794E-1,1.5933542E0,2.134343E0,4.036426E0,1.4020696E0,2.3883932E0,2.8358383E0,4.842245E0,2.1516159E0,1.1750536E0,2.6645436E0,5.3892875E0,2.303592E0,3.7685497E0,3.2094872E0,1.6889476E0,3.2340083E0,4.4937053E0,1.577591E-1,2.104776E0,1.0129212E0,5.456152E0],"split_indices":[4,4,3,3,3,2,3,1,1,1,1,3,1,1,2,0,3,4,0,1,0,2,0,4,2,4,2,2,4,1,1,3,2,3,4,3,2,2,3,0,2,3,3,1,2,2,1,1,1,2,1,3,1,3,3,2,2,0,0,2,4,2,5,0,0,0,0,0,0,0,0,0,0,0,0,0,0,0,0,0,0,0,0,0,0,0,0,0,0,0,0,0,0,0,0,0,0,0,0,0,0,0,0,0,0,0,0,0,0,0,0,0,0,0,0,0,0,0,0,0,0,0,0,0,0],"split_type":[0,0,0,0,0,0,0,0,0,0,0,0,0,0,0,0,0,0,0,0,0,0,0,0,0,0,0,0,0,0,0,0,0,0,0,0,0,0,0,0,0,0,0,0,0,0,0,0,0,0,0,0,0,0,0,0,0,0,0,0,0,0,0,0,0,0,0,0,0,0,0,0,0,0,0,0,0,0,0,0,0,0,0,0,0,0,0,0,0,0,0,0,0,0,0,0,0,0,0,0,0,0,0,0,0,0,0,0,0,0,0,0,0,0,0,0,0,0,0,0,0,0,0,0,0],"sum_hessian":[1.2E4,7.645E3,4.355E3,4.332E3,3.313E3,2.585E3,1.77E3,2.731E3,1.601E3,1.416E3,1.897E3,2.052E3,5.33E2,1.577E3,1.93E2,5.86E2,2.145E3,1.393E3,2.08E2,1.314E3,1.02E2,1.671E3,2.26E2,1.058E3,9.94E2,3.15E2,2.18E2,1.342E3,2.35E2,1.38E2,5.5E1,3.18E2,2.68E2,4.43E2,1.702E3,1.51E2,1.242E3,1.1E2,9.8E1,1.39E2,1.175E3,4.4E1,5.8E1,2.63E2,1.408E3,1.1E2,1.16E2,1.021E3,3.7E1,2.3E2,7.64E2,2.97E2,1.8E1,1.99E2,1.9E1,1.154E3,1.88E2,2.29E2,6E0,5.3E1,8.5E1,7E0,4.8E1,2.2E1,2.96E2,2.15E2,5.3E1,1.44E2,2.99E2,2.31E2,1.471E3,7.2E1,7.9E1,2.66E2,9.76E2,6.9E1,4.1E1,7.6E1,2.2E1,5.7E1,8.2E1,8.55E2,3.2E2,1.8E1,2.6E1,1.8E1,4E1,1.88E2,7.5E1,1.112E3,2.96E2,1.01E2,9E0,9.4E1,2.2E1,8.27E2,1.94E2,1.5E1,2.2E1,5E1,1.8E2,3.73E2,3.91E2,2.13E2,8.4E1,6E0,1.2E1,5.4E1,1.45E2,9E0,1E1,2.69E2,8.85E2,1.75E2,1.3E1,1.09E2,1.2E2,2.6E1,2.7E1,5.1E1,3.4E1,1E0,6E0,1E0,4.7E1],"tree_param":{"num_deleted":"0","num_feature":"6","num_nodes":"125","size_leaf_vector":"1"}},{"base_weights":[2.155807E-2,-1.6047158E0,3.313026E0,-2.6012611E0,-2.306721E-1,2.6652398E0,7.227226E0,-3.051756E0,-1.7494898E0,-1.6947141E0,4.0245783E-1,1.8652527E0,4.310218E0,6.655261E0,1.3365068E1,-3.2079425E0,-1.5106376E0,-3.2631598E0,-1.4562027E0,1.0423374E-2,-3.461135E0,-2.8760007E-1,1.671647E0,3.2604458E0,9.0814525E-1,2.1603098E0,5.758561E0,4.745872E0,8.110284E0,1.2266386E1,7.617089E0,-2.5378528E0,-3.5276387E0,-2.6333923E0,-5.603389E-1,-1.7185359E0,-4.4680448E0,-1.641721E0,6.7615E-1,-1.5718655E-1,7.7804813E0,-6.0744576E0,-2.1943717E0,9.845558E-1,-1.3829757E0,1.8817313E-1,3.3813818E0,1.7828355E0,4.1164417E0,5.350294E-1,4.4400196E0,1.3139495E0,5.0350103E0,-4.1289763E0,6.119219E0,7.5050516E0,3.8359842E0,6.337478E0,9.989776E0,2.5867817E0,4.613054E0,-1.11752E0,-6.6711134E-1,-1.1156644E0,-6.1199963E-1,-5.708171E-1,-9.843405E-1,-5.081852E-1,-2.7448405E-2,3.0052058E-2,-6.7351615E-1,-2.1171324E0,-9.733889E-1,-1.5128827E0,-4.6435094E-1,-2.831191E-1,6.350396E-1,7.043196E-2,-6.4433324E-1,6.1768574E-1,2.4440217E0,-1.4691244E0,-2.2272944E0,-8.4808296E-1,-1.2434124E-2,1.00417554E-1,7.1614796E-1,-5.1575136E-1,2.566705E-1,-3.6579925E-1,3.6273292E-1,-1.9929976E0,1.1929041E0,4.773115E-1,1.4939513E0,1.2639402E0,-1.7991406E0,-2.6606664E-1,4.1824234E-1,1.1729416E0,4.4238477E0,-3.719921E-1,6.699058E-1,1.0011013E0,1.7290711E0,-1.8837582E0,1.0104626E0,1.2050534E0,2.406578E0,2.5359519E0,1.6269542E0,7.482047E-1,2.040608E0,2.3294158E0,9.1608727E-1,7.7618295E-1,3.1079786E0],"categories":[],"categories_nodes":[],"categories_segments":[],"categories_sizes":[],"default_left":[0,0,0,0,0,0,0,0,0,0,0,0,0,0,0,0,0,0,0,0,0,0,0,0,0,0,0,0,0,0,0,0,0,0,0,0,0,0,0,0,0,0,0,0,0,0,0,0,0,0,0,0,0,0,0,0,0,0,0,0,0,0,0,0,0,0,0,0,0,0,0,0,0,0,0,0,0,0,0,0,0,0,0,0,0,0,0,0,0,0,0,0,0,0,0,0,0,0,0,0,0,0,0,0,0,0,0,0,0,0,0,0,0,0,0,0,0],"id":9,"left_children":[1,3,5,7,9,11,13,15,17,19,21,23,25,27,29,31,33,35,37,39,41,43,45,47,49,51,53,55,57,59,-1,61,63,65,67,69,71,73,75,77,79,81,83,85,87,89,91,93,95,97,99,101,103,105,107,109,111,113,115,-1,-1,-1,-1,-1,-1,-1,-1,-1,-1,-1,-1,-1,-1,-1,-1,-1,-1,-1,-1,-1,-1,-1,-1,-1,-1,-1,-1,-1,-1,-1,-1,-1,-1,-1,-1,-1,-1,-1,-1,-1,-1,-1,-1,-1,-1,-1,-1,-1,-1,-1,-1,-1,-1,-1,-1,-1,-1],"loss_changes":[6.424461E4,1.0998961E4,1.0044395E4,1.7812559E3,3.1318477E3,4.4754414E3,1.8875371E3,7.2785156E2,7.1132275E2,3.072266E3,2.066526E3,3.060331E3,3.456338E3,1.3978398E3,3.095127E2,5.829492E2,2.9940497E2,4.7806714E2,5.3634375E2,6.7843915E2,1.6452114E3,2.1320054E3,2.1070676E3,1.1727451E3,1.7924657E3,1.0882488E3,2.396668E3,5.3859375E2,9.0962695E2,3.7743408E2,0E0,3.2589014E2,5.238594E2,5.481073E1,8.1694046E1,1.11304535E2,4.3955713E2,3.8975098E2,2.5636865E2,3.9842227E2,6.277405E0,2.2269678E2,4.615597E2,6.4451105E2,6.2009863E2,6.423639E2,2.3286548E3,2.0300952E2,6.0223145E2,1.5074526E3,6.527263E2,8.2195325E2,1.0695093E2,4.0804352E2,2.5359082E3,6.271997E1,6.676533E2,6.9337744E2,3.5680273E2,0E0,0E0,0E0,0E0,0E0,0E0,0E0,0E0,0E0,0E0,0E0,0E0,0E0,0E0,0E0,0E0,0E0,0E0,0E0,0E0,0E0,0E0,0E0,0E0,0E0,0E0,0E0,0E0,0E0,0E0,0E0,0E0,0E0,0E0,0E0,0E0,0E0,0E0,0E0,0E0,0E0,0E0,0E0,0E0,0E0,0E0,0E0,0E0,0E0,0E0,0E0,0E0,0E0,0E0,0E0,0E0,0E0,0E0],"parents":[2147483647,0,0,1,1,2,2,3,3,4,4,5,5,6,6,7,7,8,8,9,9,10,10,11,11,12,12,13,13,14,14,15,15,16,16,17,17,18,18,19,19,20,20,21,21,22,22,23,23,24,24,25,25,26,26,27,27,28,28,29,29,31,31,32,32,33,33,34,34,35,35,36,36,37,37,38,38,39,39,40,40,41,41,42,42,43,43,44,44,45,45,46,46,47,47,48,48,49,49,50,50,51,51,52,52,53,53,54,54,55,55,56,56,57,57,58,58],"right_children":[2,4,6,8,10,12,14,16,18,20,22,24,26,28,30,32,34,36,38,40,42,44,46,48,50,52,54,56,58,60,-1,62,64,66,68,70,72,74,76,78,80,82,84,86,88,90,92,94,96,98,100,102,104,106,108,110,112,114,116,-1,-1,-1,-1,-1,-1,-1,-1,-1,-1,-1,-1,-1,-1,-1,-1,-1,-1,-1,-1,-1,-1,-1,-1,-1,-1,-1,-1,-1,-1,-1,-1,-1,-1,-1,-1,-1,-1,-1,-1,-1,-1,-1,-1,-1,-1,-1,-1,-1,-1,-1,-1,-1,-1,-1,-1,-1,-1],"split_conditions":[1.01E2,1.3E1,2.9E1,9E0,3E1,8.3E1,1.16E2,7E1,2.5E1,1E0,8.3E1,6.4E1,3.7E1,3.7E1,1.21E2,6.6E1,1E0,1E0,7.3E1,2.8E1,8.1E1,6.6E1,5.2E1,2.3E1,1.12E2,1.09E2,1E0,6.4E1,1E0,4.5E1,7.617089E0,3E0,9.8E1,6.5E1,4E0,5.2E1,8E1,8.1E1,1E0,7.1E1,5.7E1,1.8E1,9.6E1,2E1,7.1E1,9.5E1,1E0,1.1E2,1E0,3.4E1,1.2E2,2.4E1,2.5E1,7.1E1,2.4E1,1.11E2,8.9E1,6.9E1,7.2E1,2.5867817E0,4.613054E0,-1.11752E0,-6.6711134E-1,-1.1156644E0,-6.1199963E-1,-5.708171E-1,-9.843405E-1,-5.081852E-1,-2.7448405E-2,3.0052058E-2,-6.7351615E-1,-2.1171324E0,-9.733889E-1,-1.5128827E0,-4.6435094E-1,-2.831191E-1,6.350396E-1,7.043196E-2,-6.4433324E-1,6.1768574E-1,2.4440217E0,-1.4691244E0,-2.2272944E0,-8.4808296E-1,-1.2434124E-2,1.00417554E-1,7.1614796E-1,-5.1575136E-1,2.566705E-1,-3.6579925E-1,3.6273292E-1,-1.9929976E0,1.1929041E0,4.773115E-1,1.4939513E0,1.2639402E0,-1.7991406E0,-2.6606664E-1,4.1824234E-1,1.1729416E0,4.4238477E0,-3.719921E-1,6.699058E-1,1.0011013E0,1.7290711E0,-1.8837582E0,1.0104626E0,1.2050534E0,2.406578E0,2.5359519E0,1.6269542E0,7.482047E-1,2.040608E0,2.3294158E0,9.1608727E-1,7.7618295E-1,3.1079786E0],"split_indices":[4,3,3,3,1,2,4,1,1,0,2,2,1,1,4,2,0,0,1,3,2,2,1,3,4,4,0,2,0,1,0,3,2,2,3,2,2,4,0,2,2,3,2,3,1,4,0,4,0,1,4,1,1,1,3,4,2,2,2,0,0,0,0,0,0,0,0,0,0,0,0,0,0,0,0,0,0,0,0,0,0,0,0,0,0,0,0,0,0,0,0,0,0,0,0,0,0,0,0,0,0,0,0,0,0,0,0,0,0,0,0,0,0,0,0,0,0],"split_type":[0,0,0,0,0,0,0,0,0,0,0,0,0,0,0,0,0,0,0,0,0,0,0,0,0,0,0,0,0,0,0,0,0,0,0,0,0,0,0,0,0,0,0,0,0,0,0,0,0,0,0,0,0,0,0,0,0,0,0,0,0,0,0,0,0,0,0,0,0,0,0,0,0,0,0,0,0,0,0,0,0,0,0,0,0,0,0,0,0,0,0,0,0,0,0,0,0,0,0,0,0,0,0,0,0,0,0,0,0,0,0,0,0,0,0,0,0],"sum_hessian":[1.2E4,8.032E3,3.968E3,4.655E3,3.377E3,3.406E3,5.62E2,3.043E3,1.612E3,1.019E3,2.358E3,2.293E3,1.113E3,5.16E2,4.6E1,2.762E3,2.81E2,2.6E2,1.352E3,5.19E2,5E2,1.528E3,8.3E2,9.32E2,1.361E3,4.49E2,6.64E2,2.25E2,2.91E2,4.4E1,2E0,8.95E2,1.867E3,1.28E2,1.53E2,1.15E2,1.45E2,1.244E3,1.08E2,5.09E2,1E1,1.62E2,3.38E2,7.07E2,8.21E2,4.45E2,3.85E2,3.43E2,5.89E2,1.232E3,1.29E2,3.48E2,1.01E2,2.3E1,6.41E2,5.4E1,1.71E2,1.52E2,1.39E2,2.2E1,2.2E1,1.85E2,7.1E2,1.653E3,2.14E2,6.2E1,6.6E1,4.4E1,1.09E2,2.6E1,8.9E1,4.5E1,1E2,3.2E1,1.212E3,5.1E1,5.7E1,4.26E2,8.3E1,1E0,9E0,8.9E1,7.3E1,2.61E2,7.7E1,4.84E2,2.23E2,7.14E2,1.07E2,1.87E2,2.58E2,2.1E1,3.64E2,3.25E2,1.8E1,5.84E2,5E0,4.64E2,7.68E2,1.24E2,5E0,9.2E1,2.56E2,3.2E1,6.9E1,1.8E1,5E0,3.06E2,3.35E2,3.5E1,1.9E1,1.19E2,5.2E1,1.05E2,4.7E1,7E0,1.32E2],"tree_param":{"num_deleted":"0","num_feature":"6","num_nodes":"117","size_leaf_vector":"1"}},{"base_weights":[1.7471556E-2,-1.6470957E0,1.6654757E0,-2.2527857E0,-1.0027587E0,3.9991838E-1,2.9187884E0,-3.2718065E0,-2.0162868E0,-1.1612463E0,1.1502241E0,2.900623E-1,4.9971733E0,2.5329707E0,6.3827896E0,-2.4701874E0,-4.1834426E0,-2.8110607E0,-1.774195E0,6.962618E-2,-1.3844836E0,-3.856346E-1,1.9504075E0,1.2765397E-1,3.0492246E0,4.2802377E0,3.25144E0,2.2571445E0,6.448188E0,5.635051E0,1.19473295E1,-3.503953E0,-2.181621E0,-3.7152197E0,-6.261818E0,-2.6920958E0,-6.1944914E0,-1.8509345E0,8.1181705E-1,-7.1262485E-1,7.3336095E-1,-2.9000359E0,-1.1703126E0,-8.751402E-1,-1.8497103E-1,1.1674569E0,3.324884E0,-1.6973141E0,3.5489032E-1,2.5015614E0,5.715174E0,3.1826208E0,5.97699E0,2.0713706E0,7.894235E0,5.7926745E0,1.0254441E1,3.765133E0,7.3568077E0,9.244142E0,4.4805913E0,-9.352048E-1,-1.2273592E0,-6.321557E-1,-1.5999285E0,-1.2131279E0,-7.6901525E-1,-2.0511224E0,-5.7471985E-1,-1.0631467E0,-7.064507E-1,-7.6937354E-1,-2.0974488E0,-5.429096E-1,-2.1512048E0,-5.3420734E-1,3.655548E-1,-8.9134425E-2,-3.0091655E-1,6.5375257E-1,1.0489104E-1,-5.05567E-1,-1.1107006E0,-3.349074E-1,-1.671166E0,-4.1586566E-1,3.39494E-2,2.6615936E-1,1.2490802E0,2.4589176E-1,1.0810837E0,-4.393256E-2,-8.7897E-1,6.5333106E-2,8.4479433E-1,4.6170247E-1,1.1857624E0,1.2020999E0,2.0443742E0,2.6176158E-1,1.0897689E0,1.3131299E0,2.3337383E0,5.475295E-1,1.4805561E0,1.9205457E0,3.6378043E0,2.898106E-1,1.8356653E0,2.692422E0,6.1450953E0,1.4670194E0,2.3251018E-1,1.7925309E0,2.8660803E0,3.430955E0,2.1993182E0],"categories":[],"categories_nodes":[],"categories_segments":[],"categories_sizes":[],"default_left":[0,0,0,0,0,0,0,0,0,0,0,0,0,0,0,0,0,0,0,0,0,0,0,0,0,0,0,0,0,0,0,0,0,0,0,0,0,0,0,0,0,0,0,0,0,0,0,0,0,0,0,0,0,0,0,0,0,0,0,0,0,0,0,0,0,0,0,0,0,0,0,0,0,0,0,0,0,0,0,0,0,0,0,0,0,0,0,0,0,0,0,0,0,0,0,0,0,0,0,0,0,0,0,0,0,0,0,0,0,0,0,0,0,0,0,0,0],"id":10,"left_children":[1,3,5,7,9,11,13,15,17,19,21,23,25,27,29,31,33,35,37,39,41,43,45,47,49,51,-1,53,55,57,59,61,63,65,67,69,71,73,75,77,79,81,83,-1,85,87,89,91,93,95,97,99,101,103,105,107,109,111,113,115,-1,-1,-1,-1,-1,-1,-1,-1,-1,-1,-1,-1,-1,-1,-1,-1,-1,-1,-1,-1,-1,-1,-1,-1,-1,-1,-1,-1,-1,-1,-1,-1,-1,-1,-1,-1,-1,-1,-1,-1,-1,-1,-1,-1,-1,-1,-1,-1,-1,-1,-1,-1,-1,-1,-1,-1,-1],"loss_changes":[3.292405E4,2.3280332E3,9.564838E3,7.349531E2,9.891699E2,1.5146694E3,4.0333457E3,4.1205957E2,4.760332E2,7.411692E2,2.453169E2,1.3139202E3,2.4674182E2,2.9314668E3,1.1934043E3,8.483179E1,2.3851123E2,2.1758447E2,3.8232764E2,2.159936E2,7.3763916E2,3.451101E1,1.3709363E2,1.1497335E3,2.2369006E2,1.00170044E2,0E0,2.6540693E3,3.872129E2,8.383584E2,1.446333E2,2.2304077E0,4.623462E1,7.364404E1,1.0690747E2,1.5366577E2,3.703784E1,3.95917E2,6.1214546E1,2.275122E1,1.2406669E2,2.686101E2,4.6908228E2,0E0,2.3435635E1,6.7680244E1,2.986554E1,5.8642694E2,8.3119653E2,1.852575E2,2.3399353E1,3.9445984E1,3.51474E1,1.7330312E3,4.3393262E2,2.3813574E2,1.434231E2,4.3684924E2,3.6482568E2,4.236206E0,0E0,0E0,0E0,0E0,0E0,0E0,0E0,0E0,0E0,0E0,0E0,0E0,0E0,0E0,0E0,0E0,0E0,0E0,0E0,0E0,0E0,0E0,0E0,0E0,0E0,0E0,0E0,0E0,0E0,0E0,0E0,0E0,0E0,0E0,0E0,0E0,0E0,0E0,0E0,0E0,0E0,0E0,0E0,0E0,0E0,0E0,0E0,0E0,0E0,0E0,0E0,0E0,0E0,0E0,0E0,0E0,0E0],"parents":[2147483647,0,0,1,1,2,2,3,3,4,4,5,5,6,6,7,7,8,8,9,9,10,10,11,11,12,12,13,13,14,14,15,15,16,16,17,17,18,18,19,19,20,20,21,21,22,22,23,23,24,24,25,25,27,27,28,28,29,29,30,30,31,31,32,32,33,33,34,34,35,35,36,36,37,37,38,38,39,39,40,40,41,41,42,42,44,44,45,45,46,46,47,47,48,48,49,49,50,50,51,51,52,52,53,53,54,54,55,55,56,56,57,57,58,58,59,59],"right_children":[2,4,6,8,10,12,14,16,18,20,22,24,26,28,30,32,34,36,38,40,42,44,46,48,50,52,-1,54,56,58,60,62,64,66,68,70,72,74,76,78,80,82,84,-1,86,88,90,92,94,96,98,100,102,104,106,108,110,112,114,116,-1,-1,-1,-1,-1,-1,-1,-1,-1,-1,-1,-1,-1,-1,-1,-1,-1,-1,-1,-1,-1,-1,-1,-1,-1,-1,-1,-1,-1,-1,-1,-1,-1,-1,-1,-1,-1,-1,-1,-1,-1,-1,-1,-1,-1,-1,-1,-1,-1,-1,-1,-1,-1,-1,-1,-1,-1],"split_conditions":[9.6E1,8.9E1,2.3E1,2.6E1,9.9E1,1.1E2,6.9E1,1E0,8.1E1,5.9E1,1E1,1E2,9.6E1,3E1,1.13E2,8E1,1.1E1,1.1E1,1.04E2,1.2E1,2.4E1,3.83E1,1.06E2,2.3E1,1.08E2,4.8E1,3.25144E0,1.02E2,1.15E2,1E0,1E0,5E0,1.8E1,9.2E1,9.6E1,7.7E1,3.98E1,1.8E1,4E0,5.4E1,5.1E1,1E0,2.5E1,-8.751402E-1,3E1,7.6E1,1.2E1,1E0,7.5E1,5.1E1,4.03E1,2.2E1,1E0,1.14E2,1.11E2,2.2E1,1.21E2,7.1E1,7.6E1,6E1,4.4805913E0,-9.352048E-1,-1.2273592E0,-6.321557E-1,-1.5999285E0,-1.2131279E0,-7.6901525E-1,-2.0511224E0,-5.7471985E-1,-1.0631467E0,-7.064507E-1,-7.6937354E-1,-2.0974488E0,-5.429096E-1,-2.1512048E0,-5.3420734E-1,3.655548E-1,-8.9134425E-2,-3.0091655E-1,6.5375257E-1,1.0489104E-1,-5.05567E-1,-1.1107006E0,-3.349074E-1,-1.671166E0,-4.1586566E-1,3.39494E-2,2.6615936E-1,1.2490802E0,2.4589176E-1,1.0810837E0,-4.393256E-2,-8.7897E-1,6.5333106E-2,8.4479433E-1,4.6170247E-1,1.1857624E0,1.2020999E0,2.0443742E0,2.6176158E-1,1.0897689E0,1.3131299E0,2.3337383E0,5.475295E-1,1.4805561E0,1.9205457E0,3.6378043E0,2.898106E-1,1.8356653E0,2.692422E0,6.1450953E0,1.4670194E0,2.3251018E-1,1.7925309E0,2.8660803E0,3.430955E0,2.1993182E0],"split_indices":[4,4,3,1,2,4,1,0,4,2,3,2,2,3,4,4,3,3,2,3,1,5,2,1,2,1,0,2,4,0,0,3,3,2,2,4,5,3,3,2,2,0,3,0,1,1,3,0,1,1,5,1,0,4,2,1,4,2,1,2,0,0,0,0,0,0,0,0,0,0,0,0,0,0,0,0,0,0,0,0,0,0,0,0,0,0,0,0,0,0,0,0,0,0,0,0,0,0,0,0,0,0,0,0,0,0,0,0,0,0,0,0,0,0,0,0,0],"split_type":[0,0,0,0,0,0,0,0,0,0,0,0,0,0,0,0,0,0,0,0,0,0,0,0,0,0,0,0,0,0,0,0,0,0,0,0,0,0,0,0,0,0,0,0,0,0,0,0,0,0,0,0,0,0,0,0,0,0,0,0,0,0,0,0,0,0,0,0,0,0,0,0,0,0,0,0,0,0,0,0,0,0,0,0,0,0,0,0,0,0,0,0,0,0,0,0,0,0,0,0,0,0,0,0,0,0,0,0,0,0,0,0,0,0,0,0,0],"sum_hessian":[1.2E4,5.97E3,6.03E3,3.076E3,2.894E3,3.001E3,3.029E3,5.77E2,2.499E3,2.696E3,1.98E2,2.932E3,6.9E1,2.727E3,3.02E2,3.09E2,2.68E2,5.81E2,1.918E3,4.14E2,2.282E3,6.8E1,1.3E2,2.77E3,1.62E2,6.3E1,6E0,2.549E3,1.78E2,2.68E2,3.4E1,6.5E1,2.44E2,2.21E2,4.7E1,5.63E2,1.8E1,1.863E3,5.5E1,1.9E2,2.24E2,2.81E2,2.001E3,4E0,6.4E1,8.4E1,4.6E1,3.06E2,2.464E3,1.36E2,2.6E1,4E1,2.3E1,2.469E3,8E1,1.54E2,2.4E1,1.3E2,1.38E2,2E1,1.4E1,4.3E1,2.2E1,2.4E2,4E0,1.7E2,5.1E1,4.1E1,6E0,1.57E2,4.06E2,4E0,1.4E1,1.85E3,1.3E1,7E0,4.8E1,7.9E1,1.11E2,4.6E1,1.78E2,1.13E2,1.68E2,1.978E3,2.3E1,1.2E1,5.2E1,7.8E1,6E0,5E0,4.1E1,1.36E2,1.7E2,2.335E3,1.29E2,8.3E1,5.3E1,1.2E1,1.4E1,7E0,3.3E1,1.4E1,9E0,2.275E3,1.94E2,6.1E1,1.9E1,1E1,1.44E2,2.3E1,1E0,9.4E1,3.6E1,8.7E1,5.1E1,7E0,1.3E1],"tree_param":{"num_deleted":"0","num_feature":"6","num_nodes":"117","size_leaf_vector":"1"}},{"base_weights":[1.4728002E-2,-7.119178E-1,2.061115E0,-1.2501906E0,1.7034315E-1,1.0484816E0,2.9223392E0,-1.8122313E0,-1.0049248E0,2.1602678E0,-3.7146665E-2,9.3711454E-1,7.612574E0,1.5663092E0,4.268573E0,-1.4129058E0,-2.241624E0,-1.2158462E0,-2.3467447E-1,1.4172224E0,3.0544827E0,-3.634339E-1,1.3076148E0,4.004169E0,7.491506E-1,5.63715E0,4.8241234E0,2.388534E0,-6.2713504E-1,3.8507507E0,7.807309E0,-8.2963884E-1,-1.290795E0,-3.1725657E0,-1.688932E0,-7.074885E-1,-1.59508E0,-7.88176E-1,6.732519E-1,-3.2280369E0,1.517012E0,1.6702476E0,3.6330013E0,-1.7241018E0,-8.402351E-2,4.579846E-1,2.7190714E0,2.8509235E0,5.630172E0,-7.350151E-1,1.1514273E0,-3.2862854E-1,6.02855E0,1.781057E0,4.765315E0,-1.0890937E0,3.8319738E0,2.1687777E-1,4.1158414E0,6.8505926E0,4.404093E0,-2.0315461E-1,-4.3711922E-1,-8.709277E-1,-2.0930336E0,-5.805569E-1,-1.3393945E-1,-1.7722884E-1,-1.3585594E0,-5.407339E-1,-1.5893915E-1,-4.3107554E-1,-5.5522967E-2,-1.4578698E0,2.2818029E-1,-1.4216332E0,1.956276E-1,1.0360723E0,4.0108687E-1,6.9176406E-1,-1.3388278E-1,7.5593776E-1,1.2092756E0,7.7975065E-2,-1.0505645E0,-6.845909E-2,4.8126972E-1,3.6385503E-2,7.44674E-1,-1.3728368E0,8.82561E-1,1.0573804E0,3.5972115E-1,1.785282E0,1.0765843E0,3.1042016E-1,-6.7464954E-1,1.9007017E-1,6.9631505E-1,1.3914216E0,2.3844857E0,4.2833918E-1,1.2778276E0,4.6534196E-1,1.7160319E0,-5.020694E-1,4.5944545E-1,7.65533E-1,2.3022866E0,-2.8477952E-1,4.3931475E-1,1.1228827E0,2.0052242E0,1.6895157E0,2.673925E0],"categories":[],"categories_nodes":[],"categories_segments":[],"categories_sizes":[],"default_left":[0,0,0,0,0,0,0,0,0,0,0,0,0,0,0,0,0,0,0,0,0,0,0,0,0,0,0,0,0,0,0,0,0,0,0,0,0,0,0,0,0,0,0,0,0,0,0,0,0,0,0,0,0,0,0,0,0,0,0,0,0,0,0,0,0,0,0,0,0,0,0,0,0,0,0,0,0,0,0,0,0,0,0,0,0,0,0,0,0,0,0,0,0,0,0,0,0,0,0,0,0,0,0,0,0,0,0,0,0,0,0,0,0,0,0],"id":11,"left_children":[1,3,5,7,9,11,13,15,17,19,21,23,25,27,29,31,33,35,37,39,41,43,45,47,49,51,-1,53,55,57,59,-1,61,63,65,67,69,71,73,75,77,79,81,83,85,87,89,91,93,95,97,-1,99,101,103,105,107,109,111,113,-1,-1,-1,-1,-1,-1,-1,-1,-1,-1,-1,-1,-1,-1,-1,-1,-1,-1,-1,-1,-1,-1,-1,-1,-1,-1,-1,-1,-1,-1,-1,-1,-1,-1,-1,-1,-1,-1,-1,-1,-1,-1,-1,-1,-1,-1,-1,-1,-1,-1,-1,-1,-1,-1,-1],"loss_changes":[1.784694E4,4.206376E3,2.739704E3,7.564883E2,1.386149E3,1.0506575E3,3.0948945E3,2.831831E2,6.2227E2,2.062992E2,1.3348008E3,8.1793005E2,3.108141E2,1.5308696E3,1.2296709E3,1.397909E2,4.0780444E2,5.7877344E2,4.1512503E2,8.6017975E1,1.08447266E2,9.3054736E2,7.110891E2,1.3771362E2,8.026779E2,6.194159E1,0E0,8.8236206E2,4.8207562E2,7.3507324E2,4.8465186E2,0E0,8.042908E1,2.8523608E2,1.5395532E2,5.7134467E2,3.794414E2,2.0044849E2,1.5496472E2,2.6537586E1,5.535727E1,6.022364E1,3.4139404E1,1.4717312E3,4.9495837E2,2.5324226E2,3.7591748E2,5.141461E1,2.5500488E-1,7.7122156E2,6.387554E2,0E0,1.6522339E1,4.2554382E2,3.747356E2,3.2574155E2,8.863321E1,7.849283E1,6.568594E2,1.5091699E2,0E0,0E0,0E0,0E0,0E0,0E0,0E0,0E0,0E0,0E0,0E0,0E0,0E0,0E0,0E0,0E0,0E0,0E0,0E0,0E0,0E0,0E0,0E0,0E0,0E0,0E0,0E0,0E0,0E0,0E0,0E0,0E0,0E0,0E0,0E0,0E0,0E0,0E0,0E0,0E0,0E0,0E0,0E0,0E0,0E0,0E0,0E0,0E0,0E0,0E0,0E0,0E0,0E0,0E0,0E0],"parents":[2147483647,0,0,1,1,2,2,3,3,4,4,5,5,6,6,7,7,8,8,9,9,10,10,11,11,12,12,13,13,14,14,15,15,16,16,17,17,18,18,19,19,20,20,21,21,22,22,23,23,24,24,25,25,27,27,28,28,29,29,30,30,32,32,33,33,34,34,35,35,36,36,37,37,38,38,39,39,40,40,41,41,42,42,43,43,44,44,45,45,46,46,47,47,48,48,49,49,50,50,52,52,53,53,54,54,55,55,56,56,57,57,58,58,59,59],"right_children":[2,4,6,8,10,12,14,16,18,20,22,24,26,28,30,32,34,36,38,40,42,44,46,48,50,52,-1,54,56,58,60,-1,62,64,66,68,70,72,74,76,78,80,82,84,86,88,90,92,94,96,98,-1,100,102,104,106,108,110,112,114,-1,-1,-1,-1,-1,-1,-1,-1,-1,-1,-1,-1,-1,-1,-1,-1,-1,-1,-1,-1,-1,-1,-1,-1,-1,-1,-1,-1,-1,-1,-1,-1,-1,-1,-1,-1,-1,-1,-1,-1,-1,-1,-1,-1,-1,-1,-1,-1,-1,-1,-1,-1,-1,-1,-1],"split_conditions":[1.03E2,1.5E1,3.8E1,8.5E1,5.6E1,1.18E2,1E0,1E0,8.9E1,2E1,9.1E1,5.3E1,1.22E2,6.9E1,1.13E2,2E0,8.3E1,6.7E1,5.1E1,8.5E1,9.8E1,2.5E1,5.2E1,2.8E1,2.3E1,4.05E1,4.8241234E0,1.11E2,1.15E2,7.4E1,1.18E2,-8.2963884E-1,5.7E1,1.1E1,6.4E1,1E0,6.3E1,1E1,1E0,5.5E1,4.7E1,5.4E1,2.7E1,1E0,7.3E1,1.04E2,1E0,5.2E1,1.13E2,1E0,8.4E1,-3.2862854E-1,8.8E1,2.9E1,4.5E1,2.9E1,1.18E2,7.1E1,7.3E1,2.9E1,4.404093E0,-2.0315461E-1,-4.3711922E-1,-8.709277E-1,-2.0930336E0,-5.805569E-1,-1.3393945E-1,-1.7722884E-1,-1.3585594E0,-5.407339E-1,-1.5893915E-1,-4.3107554E-1,-5.5522967E-2,-1.4578698E0,2.2818029E-1,-1.4216332E0,1.956276E-1,1.0360723E0,4.0108687E-1,6.9176406E-1,-1.3388278E-1,7.5593776E-1,1.2092756E0,7.7975065E-2,-1.0505645E0,-6.845909E-2,4.8126972E-1,3.6385503E-2,7.44674E-1,-1.3728368E0,8.82561E-1,1.0573804E0,3.5972115E-1,1.785282E0,1.0765843E0,3.1042016E-1,-6.7464954E-1,1.9007017E-1,6.9631505E-1,1.3914216E0,2.3844857E0,4.2833918E-1,1.2778276E0,4.6534196E-1,1.7160319E0,-5.020694E-1,4.5944545E-1,7.65533E-1,2.3022866E0,-2.8477952E-1,4.3931475E-1,1.1228827E0,2.0052242E0,1.6895157E0,2.673925E0],"split_indices":[4,3,1,4,2,4,0,0,2,3,2,2,4,2,4,3,2,2,1,4,4,1,1,3,1,5,0,4,4,2,4,0,2,3,1,0,1,3,0,2,2,1,1,0,1,2,0,2,4,0,2,0,2,3,1,3,4,2,1,3,0,0,0,0,0,0,0,0,0,0,0,0,0,0,0,0,0,0,0,0,0,0,0,0,0,0,0,0,0,0,0,0,0,0,0,0,0,0,0,0,0,0,0,0,0,0,0,0,0,0,0,0,0,0,0],"split_type":[0,0,0,0,0,0,0,0,0,0,0,0,0,0,0,0,0,0,0,0,0,0,0,0,0,0,0,0,0,0,0,0,0,0,0,0,0,0,0,0,0,0,0,0,0,0,0,0,0,0,0,0,0,0,0,0,0,0,0,0,0,0,0,0,0,0,0,0,0,0,0,0,0,0,0,0,0,0,0,0,0,0,0,0,0,0,0,0,0,0,0,0,0,0,0,0,0,0,0,0,0,0,0,0,0,0,0,0,0,0,0,0,0,0,0],"sum_hessian":[1.2E4,8.856E3,3.144E3,5.5E3,3.356E3,1.446E3,1.698E3,1.669E3,3.831E3,3.16E2,3.04E3,1.423E3,2.3E1,8.47E2,8.51E2,8.67E2,8.02E2,3.007E3,8.24E2,1.74E2,1.42E2,2.447E3,5.93E2,8.1E1,1.342E3,2E1,3E0,6.16E2,2.31E2,7.63E2,8.8E1,7E1,7.97E2,2.97E2,5.05E2,1.286E3,1.721E3,5.12E2,3.12E2,3E0,1.71E2,4.3E1,9.9E1,4.16E2,2.031E3,3.71E2,2.22E2,4.9E1,3.2E1,2.86E2,1.056E3,1E0,1.9E1,4.92E2,1.24E2,2.1E2,2.1E1,5.2E1,7.11E2,7.9E1,9E0,1.71E2,6.26E2,2.79E2,1.8E1,4.21E2,8.4E1,1.249E3,3.7E1,1.44E3,2.81E2,2.46E2,2.66E2,4E0,3.08E2,2E0,1E0,1.3E1,1.58E2,3.3E1,1E1,2.8E1,7.1E1,1.97E2,2.19E2,1.872E3,1.59E2,3.19E2,5.2E1,6E0,2.16E2,3.4E1,1.5E1,2.6E1,6E0,1.32E2,1.54E2,7.33E2,3.23E2,1.3E1,6E0,4.32E2,6E1,2.9E1,9.5E1,1.72E2,3.8E1,1.7E1,4E0,2.7E1,2.5E1,6.23E2,8.8E1,5.2E1,2.7E1],"tree_param":{"num_deleted":"0","num_feature":"6","num_nodes":"115","size_leaf_vector":"1"}},{"base_weights":[1.2426644E-2,-5.4756117E-1,1.3547772E0,-9.4519955E-1,6.0636405E-2,8.9817077E-1,2.5917552E0,-1.1102684E0,-2.4920253E-1,1.598011E0,-4.6915714E-2,5.9711635E-1,2.2783403E0,2.1216388E0,4.5164185E0,-7.158863E-1,-1.5236248E0,-8.5985744E-1,3.5948053E-1,7.8454894E-1,2.159461E0,-4.120707E-1,5.629611E-1,5.39528E-1,6.3302546E0,2.1660547E0,3.632407E0,6.910112E-1,2.6527293E0,4.173682E0,1.0131208E1,-1.5002254E0,-5.1543295E-1,-2.4901092E0,-9.5090544E-1,-7.794502E-1,-1.3948506E0,1.00286275E-1,2.2283278E0,1.5591727E0,3.379873E-1,1.2533642E0,2.510246E0,5.214001E-2,-1.7275878E0,-4.534429E-1,1.3108994E0,1.8140135E0,3.8112155E-1,3.27872E0,7.621827E0,1.16632E0,3.0613916E0,2.3391464E0,-1.3502089E0,4.7588296E0,2.4273326E0,3.6692407E0,6.344769E0,1.3989453E0,1.1808497E1,-7.187324E-1,-3.877289E-1,-9.093998E-2,-3.7469992E-1,-6.675416E-1,-1.4147613E0,-2.7163014E-1,-1.692722E0,-1.6796516E-1,-6.19127E-1,-5.4472264E-2,3.6797267E-1,1.7890387E-3,8.528692E-1,5.7125807E-1,1.7256169E-1,-2.570517E-2,3.505291E-1,5.314947E-1,-1.1249932E-1,9.87165E-1,4.378101E-1,2.0613395E-1,-2.4301882E-1,-8.1518006E-1,1.8176754E-1,-4.905915E-1,-7.200808E-2,-1.336205E0,4.672791E-1,4.1928235E-1,8.4558916E-1,-4.1224062E-2,3.2473746E-1,2.1645585E-1,1.2032601E0,1.2982289E0,2.5520532E0,8.859652E-1,5.0865527E-2,6.940464E-1,1.3076026E0,1.0443906E0,1.5762107E-1,-1.2209255E0,4.022417E-1,1.1678735E0,2.3133478E0,5.144986E-1,1.056368E0,8.243105E-1,1.3586228E0,7.6406485E-1,2.1918907E0,1.5319428E0,4.040404E0],"categories":[],"categories_nodes":[],"categories_segments":[],"categories_sizes":[],"default_left":[0,0,0,0,0,0,0,0,0,0,0,0,0,0,0,0,0,0,0,0,0,0,0,0,0,0,0,0,0,0,0,0,0,0,0,0,0,0,0,0,0,0,0,0,0,0,0,0,0,0,0,0,0,0,0,0,0,0,0,0,0,0,0,0,0,0,0,0,0,0,0,0,0,0,0,0,0,0,0,0,0,0,0,0,0,0,0,0,0,0,0,0,0,0,0,0,0,0,0,0,0,0,0,0,0,0,0,0,0,0,0,0,0,0,0,0,0],"id":12,"left_children":[1,3,5,7,9,11,13,15,17,19,21,23,25,27,29,31,33,35,37,39,41,43,45,47,49,51,-1,53,55,57,59,61,63,65,67,69,-1,71,73,75,77,79,81,83,85,87,89,91,93,95,97,99,101,103,105,107,109,111,113,-1,115,-1,-1,-1,-1,-1,-1,-1,-1,-1,-1,-1,-1,-1,-1,-1,-1,-1,-1,-1,-1,-1,-1,-1,-1,-1,-1,-1,-1,-1,-1,-1,-1,-1,-1,-1,-1,-1,-1,-1,-1,-1,-1,-1,-1,-1,-1,-1,-1,-1,-1,-1,-1,-1,-1,-1,-1],"loss_changes":[9.021893E3,2.0482234E3,1.9931533E3,5.880615E2,5.538251E2,1.0714766E3,8.5180225E2,6.736504E2,3.656856E2,9.832709E1,6.975043E2,6.9685754E2,4.8369678E2,5.809275E2,3.1565234E2,3.325404E2,1.1157515E3,1.4599094E2,2.3858302E2,3.09515E1,3.7855774E1,1.1964066E3,8.9231775E2,4.2347278E2,5.7776978E1,4.06385E2,0E0,7.0627747E2,2.538103E2,1.7056763E2,3.665027E1,7.710907E1,2.6281525E2,4.3241797E2,2.6582117E2,1.3476395E2,0E0,1.3799881E2,8.193088E1,1.01078415E1,2.085837E1,3.2734657E1,7.0638306E1,7.938487E2,1.1817477E3,1.2521715E2,9.683386E2,9.311279E1,6.802073E2,1.2084053E1,4.005615E0,3.87784E2,2.2374487E2,2.384737E2,6.9337964E2,1.05474365E2,3.8902637E2,1.03197754E2,9.824927E1,0E0,9.080566E0,0E0,0E0,0E0,0E0,0E0,0E0,0E0,0E0,0E0,0E0,0E0,0E0,0E0,0E0,0E0,0E0,0E0,0E0,0E0,0E0,0E0,0E0,0E0,0E0,0E0,0E0,0E0,0E0,0E0,0E0,0E0,0E0,0E0,0E0,0E0,0E0,0E0,0E0,0E0,0E0,0E0,0E0,0E0,0E0,0E0,0E0,0E0,0E0,0E0,0E0,0E0,0E0,0E0,0E0,0E0,0E0],"parents":[2147483647,0,0,1,1,2,2,3,3,4,4,5,5,6,6,7,7,8,8,9,9,10,10,11,11,12,12,13,13,14,14,15,15,16,16,17,17,18,18,19,19,20,20,21,21,22,22,23,23,24,24,25,25,27,27,28,28,29,29,30,30,31,31,32,32,33,33,34,34,35,35,37,37,38,38,39,39,40,40,41,41,42,42,43,43,44,44,45,45,46,46,47,47,48,48,49,49,50,50,51,51,52,52,53,53,54,54,55,55,56,56,57,57,58,58,60,60],"right_children":[2,4,6,8,10,12,14,16,18,20,22,24,26,28,30,32,34,36,38,40,42,44,46,48,50,52,-1,54,56,58,60,62,64,66,68,70,-1,72,74,76,78,80,82,84,86,88,90,92,94,96,98,100,102,104,106,108,110,112,114,-1,116,-1,-1,-1,-1,-1,-1,-1,-1,-1,-1,-1,-1,-1,-1,-1,-1,-1,-1,-1,-1,-1,-1,-1,-1,-1,-1,-1,-1,-1,-1,-1,-1,-1,-1,-1,-1,-1,-1,-1,-1,-1,-1,-1,-1,-1,-1,-1,-1,-1,-1,-1,-1,-1,-1,-1,-1],"split_conditions":[1.02E2,9.4E1,2.8E1,6.1E1,5.4E1,6.2E1,9E1,1E0,1E0,1.7E1,8.2E1,1.08E2,1.17E2,2.9E1,1.18E2,4E0,8.3E1,2E1,1.5E1,4.9E1,2.9E1,1E0,3.8E1,5.7E1,1.12E2,1E0,3.632407E0,1E0,5.5E1,3E1,4.09E1,2E0,7E1,1.6E1,2.2E1,7.5E1,-1.3948506E0,7.6E1,9E1,4.3E1,9.8E1,5.2E1,4.8E1,4.5E1,4.7E1,2.2E1,1E0,2.6E1,8E1,2.4E1,2.1E1,6.1E1,7.2E1,1.11E2,8E1,3E1,1E0,1.09E2,2.7E1,1.3989453E0,2.7E1,-7.187324E-1,-3.877289E-1,-9.093998E-2,-3.7469992E-1,-6.675416E-1,-1.4147613E0,-2.7163014E-1,-1.692722E0,-1.6796516E-1,-6.19127E-1,-5.4472264E-2,3.6797267E-1,1.7890387E-3,8.528692E-1,5.7125807E-1,1.7256169E-1,-2.570517E-2,3.505291E-1,5.314947E-1,-1.1249932E-1,9.87165E-1,4.378101E-1,2.0613395E-1,-2.4301882E-1,-8.1518006E-1,1.8176754E-1,-4.905915E-1,-7.200808E-2,-1.336205E0,4.672791E-1,4.1928235E-1,8.4558916E-1,-4.1224062E-2,3.2473746E-1,2.1645585E-1,1.2032601E0,1.2982289E0,2.5520532E0,8.859652E-1,5.0865527E-2,6.940464E-1,1.3076026E0,1.0443906E0,1.5762107E-1,-1.2209255E0,4.022417E-1,1.1678735E0,2.3133478E0,5.144986E-1,1.056368E0,8.243105E-1,1.3586228E0,7.6406485E-1,2.1918907E0,1.5319428E0,4.040404E0],"split_indices":[4,4,3,1,2,1,2,0,0,3,2,2,4,1,4,3,2,3,3,2,1,0,1,2,2,0,0,0,2,3,5,3,2,3,3,2,0,1,4,1,4,2,1,1,1,1,0,3,2,3,3,2,1,4,2,3,0,4,1,0,1,0,0,0,0,0,0,0,0,0,0,0,0,0,0,0,0,0,0,0,0,0,0,0,0,0,0,0,0,0,0,0,0,0,0,0,0,0,0,0,0,0,0,0,0,0,0,0,0,0,0,0,0,0,0,0,0],"split_type":[0,0,0,0,0,0,0,0,0,0,0,0,0,0,0,0,0,0,0,0,0,0,0,0,0,0,0,0,0,0,0,0,0,0,0,0,0,0,0,0,0,0,0,0,0,0,0,0,0,0,0,0,0,0,0,0,0,0,0,0,0,0,0,0,0,0,0,0,0,0,0,0,0,0,0,0,0,0,0,0,0,0,0,0,0,0,0,0,0,0,0,0,0,0,0,0,0,0,0,0,0,0,0,0,0,0,0,0,0,0,0,0,0,0,0,0,0],"sum_hessian":[1.2E4,8.468E3,3.532E3,5.12E3,3.348E3,2.581E3,9.51E2,4.138E3,9.82E2,2.18E2,3.13E3,2.12E3,4.61E2,7.66E2,1.85E2,2.119E3,2.019E3,4.9E2,4.92E2,9E1,1.28E2,1.958E3,1.172E3,2.1E3,2E1,4.57E2,4E0,2.08E2,5.58E2,1.76E2,9E0,4.3E2,1.689E3,7.5E2,1.269E3,4.81E2,9E0,4.33E2,5.9E1,3.2E1,5.8E1,3.7E1,9.1E1,1.448E3,5.1E2,4.97E2,6.75E2,2.31E2,1.869E3,7E0,1.3E1,2.17E2,2.4E2,1.15E2,9.3E1,5.2E1,5.06E2,1.45E2,3.1E1,3E0,6E0,7.9E1,3.51E2,1.311E3,3.78E2,6.72E2,7.8E1,1.258E3,1.1E1,4.12E2,6.9E1,3.47E2,8.6E1,1.3E1,4.6E1,2.3E1,9E0,3.9E1,1.9E1,2.8E1,9E0,5.1E1,4E1,8.34E2,6.14E2,3.58E2,1.52E2,7.5E1,4.22E2,2.7E1,6.48E2,1.65E2,6.6E1,1.075E3,7.94E2,2E0,5E0,4E0,9E0,7.7E1,1.4E2,1.54E2,8.6E1,7E1,4.5E1,4.6E1,4.7E1,4.2E1,1E1,3.08E2,1.98E2,7.2E1,7.3E1,7E0,2.4E1,2E0,4E0],"tree_param":{"num_deleted":"0","num_feature":"6","num_nodes":"117","size_leaf_vector":"1"}},{"base_weights":[1.0791431E-2,-4.0342158E-1,1.0153494E0,-8.7070984E-1,-1.416558E-1,9.482544E-1,6.269909E0,-1.9624424E0,-8.2027704E-1,-1.8815637E-1,2.035732E0,8.626534E-1,4.965466E0,4.8491936E0,3.9259992E0,-1.5601327E0,-2.723452E0,-1.1867032E0,-6.8368715E-1,-1.3317622E0,-9.8691106E-2,7.29935E-1,3.0812197E0,7.2627234E-1,3.1304672E0,3.7741578E0,7.0541596E0,3.0098572E0,5.7967286E0,-2.251769E0,-1.355949E0,-3.840984E0,-1.974435E0,-8.983259E-1,-1.5124018E0,-1.6665738E0,-6.2515616E-1,-8.4089065E-1,-1.7124408E0,-1.7676822E0,-4.220087E-2,3.7299387E0,-7.315972E-2,1.7843956E0,4.4482465E0,-4.5151258E0,7.756464E-1,2.3992352E0,5.6084747E0,3.006636E0,4.9968953E0,7.300759E0,1.7036591E-1,1.3853743E0,1.4005497E0,4.730126E0,2.2016008E0,-4.495469E-1,-7.6989245E-1,-4.3121204E-1,-2.122143E-1,-3.0030224E-1,-1.2458742E0,-7.223593E-1,-3.4792647E-1,-5.6364703E-1,-2.5191048E-1,-2.621025E-1,-5.391087E-1,-3.648138E-1,-9.0684927E-1,-2.0231459E-1,1.3347669E-1,-2.1037239E-1,-5.9668565E-1,-1.1255513E0,-3.6910903E-1,-4.138169E-1,-2.2595372E0,-2.8934503E-2,5.4847294E-1,2.4404146E-1,1.2862971E0,-1.0034252E0,1.3780376E-1,9.566998E-1,3.4535348E-1,3.831047E-1,1.4259925E0,-6.2118846E-1,-1.8089269E0,-1.6797663E-1,2.929427E-1,1.6195184E0,6.152413E-1,3.3496934E-1,1.8510398E0,1.0518306E0,4.0219676E-1,1.0668707E0,1.9640841E0,4.9029237E-1,2.242821E0,-6.195431E-1,1.0364472E0,5.1679534E-1,1.5048839E0],"categories":[],"categories_nodes":[],"categories_segments":[],"categories_sizes":[],"default_left":[0,0,0,0,0,0,0,0,0,0,0,0,0,0,0,0,0,0,0,0,0,0,0,0,0,0,0,0,0,0,0,0,0,0,0,0,0,0,0,0,0,0,0,0,0,0,0,0,0,0,0,0,0,0,0,0,0,0,0,0,0,0,0,0,0,0,0,0,0,0,0,0,0,0,0,0,0,0,0,0,0,0,0,0,0,0,0,0,0,0,0,0,0,0,0,0,0,0,0,0,0,0,0,0,0,0,0],"id":13,"left_children":[1,3,5,7,9,11,13,15,17,19,21,23,25,27,-1,29,31,33,35,37,39,41,43,45,47,49,51,53,55,57,59,61,63,65,67,69,71,73,75,77,79,81,83,85,87,89,91,93,95,97,99,101,-1,103,-1,105,-1,-1,-1,-1,-1,-1,-1,-1,-1,-1,-1,-1,-1,-1,-1,-1,-1,-1,-1,-1,-1,-1,-1,-1,-1,-1,-1,-1,-1,-1,-1,-1,-1,-1,-1,-1,-1,-1,-1,-1,-1,-1,-1,-1,-1,-1,-1,-1,-1,-1,-1],"loss_changes":[4.9940376E3,1.0393525E3,1.229407E3,1.6637573E2,5.5199194E2,1.185877E3,3.6266577E2,3.6776733E1,1.4523474E2,5.457084E2,1.5338312E2,1.0462085E3,1.5253247E2,4.8780457E1,0E0,9.656601E0,3.0083466E1,7.29353E1,1.2138049E2,7.0876526E1,4.6652557E2,1.2555581E2,1.03748474E2,8.3136816E2,3.344475E2,3.0023132E1,3.5841797E1,3.3948883E1,4.758484E0,6.561966E-1,2.785492E0,1.09027405E1,7.447548E0,2.2679352E1,6.569556E1,6.9036865E1,1.0617755E2,2.6021019E1,2.0872675E2,3.521927E2,4.8599963E2,1.4404358E1,7.470629E1,2.656916E1,2.2952637E1,9.858984E1,8.5080774E2,1.4567908E2,1.0159607E2,2.1926758E1,1.4680145E1,1.1623047E1,0E0,7.140076E1,0E0,5.988861E0,0E0,0E0,0E0,0E0,0E0,0E0,0E0,0E0,0E0,0E0,0E0,0E0,0E0,0E0,0E0,0E0,0E0,0E0,0E0,0E0,0E0,0E0,0E0,0E0,0E0,0E0,0E0,0E0,0E0,0E0,0E0,0E0,0E0,0E0,0E0,0E0,0E0,0E0,0E0,0E0,0E0,0E0,0E0,0E0,0E0,0E0,0E0,0E0,0E0,0E0,0E0],"parents":[2147483647,0,0,1,1,2,2,3,3,4,4,5,5,6,6,7,7,8,8,9,9,10,10,11,11,12,12,13,13,15,15,16,16,17,17,18,18,19,19,20,20,21,21,22,22,23,23,24,24,25,25,26,26,27,27,28,28,29,29,30,30,31,31,32,32,33,33,34,34,35,35,36,36,37,37,38,38,39,39,40,40,41,41,42,42,43,43,44,44,45,45,46,46,47,47,48,48,49,49,50,50,51,51,53,53,55,55],"right_children":[2,4,6,8,10,12,14,16,18,20,22,24,26,28,-1,30,32,34,36,38,40,42,44,46,48,50,52,54,56,58,60,62,64,66,68,70,72,74,76,78,80,82,84,86,88,90,92,94,96,98,100,102,-1,104,-1,106,-1,-1,-1,-1,-1,-1,-1,-1,-1,-1,-1,-1,-1,-1,-1,-1,-1,-1,-1,-1,-1,-1,-1,-1,-1,-1,-1,-1,-1,-1,-1,-1,-1,-1,-1,-1,-1,-1,-1,-1,-1,-1,-1,-1,-1,-1,-1,-1,-1,-1,-1],"split_conditions":[2.2E1,9E0,1.18E2,7.6E1,1.08E2,1.05E2,1.22E2,4E0,2.9E1,2.2E1,3.7E1,3E1,1.12E2,3.5E1,3.9259992E0,7.2E1,7.4E1,1E0,2E0,1E0,8.4E1,1.8E1,1E0,9.3E1,6E1,2.8E1,7.5E1,4.09E1,5E1,3.81E1,6.6E1,5E1,3.9E1,2E0,4E0,8.5E1,1.02E2,7.4E1,7.5E1,1.6E1,7.7E1,1E0,1.9E1,1.9E1,7.2E1,6.9E1,2.4E1,1.02E2,1.04E2,1.1E2,4.1E1,2.5E1,1.7036591E-1,7.1E1,1.4005497E0,2.6E1,2.2016008E0,-4.495469E-1,-7.6989245E-1,-4.3121204E-1,-2.122143E-1,-3.0030224E-1,-1.2458742E0,-7.223593E-1,-3.4792647E-1,-5.6364703E-1,-2.5191048E-1,-2.621025E-1,-5.391087E-1,-3.648138E-1,-9.0684927E-1,-2.0231459E-1,1.3347669E-1,-2.1037239E-1,-5.9668565E-1,-1.1255513E0,-3.6910903E-1,-4.138169E-1,-2.2595372E0,-2.8934503E-2,5.4847294E-1,2.4404146E-1,1.2862971E0,-1.0034252E0,1.3780376E-1,9.566998E-1,3.4535348E-1,3.831047E-1,1.4259925E0,-6.2118846E-1,-1.8089269E0,-1.6797663E-1,2.929427E-1,1.6195184E0,6.152413E-1,3.3496934E-1,1.8510398E0,1.0518306E0,4.0219676E-1,1.0668707E0,1.9640841E0,4.9029237E-1,2.242821E0,-6.195431E-1,1.0364472E0,5.1679534E-1,1.5048839E0],"split_indices":[3,3,4,4,4,2,4,3,1,1,1,3,2,1,0,4,4,0,3,0,4,3,0,4,1,3,1,5,1,5,1,2,1,3,3,4,2,2,2,3,1,0,3,3,2,2,1,4,4,4,5,1,0,2,0,3,0,0,0,0,0,0,0,0,0,0,0,0,0,0,0,0,0,0,0,0,0,0,0,0,0,0,0,0,0,0,0,0,0,0,0,0,0,0,0,0,0,0,0,0,0,0,0,0,0,0,0],"split_type":[0,0,0,0,0,0,0,0,0,0,0,0,0,0,0,0,0,0,0,0,0,0,0,0,0,0,0,0,0,0,0,0,0,0,0,0,0,0,0,0,0,0,0,0,0,0,0,0,0,0,0,0,0,0,0,0,0,0,0,0,0,0,0,0,0,0,0,0,0,0,0,0,0,0,0,0,0,0,0,0,0,0,0,0,0,0,0,0,0,0,0,0,0,0,0,0,0,0,0,0,0,0,0,0,0,0,0],"sum_hessian":[1.2E4,8.497E3,3.503E3,3.05E3,5.447E3,3.46E3,4.3E1,1.33E2,2.917E3,5.334E3,1.13E2,3.389E3,7.1E1,3.7E1,6E0,8.9E1,4.4E1,7.9E2,2.127E3,3.86E2,4.948E3,5.1E1,6.2E1,3.198E3,1.91E2,4.7E1,2.4E1,1.4E1,2.3E1,1.8E1,7.1E1,1.6E1,2.8E1,4.21E2,3.69E2,1.18E2,2.009E3,1.7E2,2.16E2,1.61E2,4.787E3,1E1,4.1E1,3.3E1,2.9E1,2.9E1,3.169E3,1.49E2,4.2E1,3.1E1,1.6E1,2.3E1,1E0,8E0,6E0,1.6E1,7E0,7E0,1.1E1,6.2E1,9E0,2E0,1.4E1,1.7E1,1.1E1,2.2E1,3.99E2,1.15E2,2.54E2,9E1,2.8E1,1.921E3,8.8E1,1.53E2,1.7E1,4E1,1.76E2,1.52E2,9E0,4.653E3,1.34E2,2E0,8E0,5E0,3.6E1,9E0,2.4E1,3E0,2.6E1,1.2E1,1.7E1,4.14E2,2.755E3,1.4E1,1.35E2,5E0,3.7E1,2.3E1,8E0,1E1,6E0,1E0,2.2E1,3E0,5E0,2E0,1.4E1],"tree_param":{"num_deleted":"0","num_feature":"6","num_nodes":"107","size_leaf_vector":"1"}},{"base_weights":[8.502103E-3,-4.822479E-1,4.3135113E-1,-5.186178E-1,7.881785E-1,2.9428867E-1,1.593329E0,5.0304897E-2,-6.033436E-1,-4.4702676E-1,1.2363403E0,2.2196643E-1,2.2168598E0,8.8377404E-1,3.1343048E0,-6.245711E-1,1.9784668E-1,-7.4073404E-1,-2.5382662E-1,-6.6649544E-1,9.8086816E-1,7.170745E-1,1.5898987E0,7.9284877E-1,-4.5297667E-2,1.0172672E0,3.24671E0,3.1264033E0,5.891225E-1,2.5299952E0,5.7810783E0,-1.2065268E0,-5.099572E-1,1.3312256E0,1.3093665E-1,-5.7912976E-1,-1.00599E0,-9.1069925E-1,-8.6112335E-2,-1.2004783E0,-3.944074E-1,-2.1596676E-1,4.394993E-1,9.22296E-1,-1.2322891E0,1.9049156E0,-1.2671788E-2,9.2239654E-1,-5.8602676E0,-7.894986E-1,4.637559E-1,2.8064132E-1,3.0463605E0,-9.931992E-1,3.396032E0,2.1427083E0,5.541163E0,3.2434914E-1,3.6362221E0,8.951075E-1,4.012989E0,3.9320157E0,7.17875E0,-2.5821674E-1,-5.60985E-1,-7.383294E-2,-1.6816631E-1,1.8129161E-1,5.811236E-1,-1.055331E-1,7.531178E-2,-1.4347972E-1,-3.1337407E-1,-6.0814816E-1,-2.0782894E-1,-3.181117E-1,-1.4657426E-2,-1.0054011E0,-1.079643E-2,-2.4284149E-2,-3.8846853E-1,-1.3378862E-1,1.3416882E-1,2.1342817E-1,4.7043213E-1,4.0513802E-2,-4.8236534E-1,7.2249806E-1,2.3935029E-1,-6.560856E-1,1.9226384E-1,3.7669328E-1,6.814115E-2,-1.8341963E0,3.7687227E-1,-7.611731E-2,-5.0920117E-1,-1.0337471E0,1.964486E-1,3.7958267E-1,-1.978666E-1,1.4719468E0,4.731374E-1,1.2999562E0,8.189699E-1,-1.01392366E-1,8.3203226E-1,1.7564505E0,7.0045936E-1,4.8665542E-2,1.2068849E0,8.7592334E-1,2.9483263E0,1.2991631E-1,1.4246318E0,1.8160886E0,1.0196813E0,1.9457245E-2,1.2429764E0,1.1574082E0,2.6776505E0],"categories":[],"categories_nodes":[],"categories_segments":[],"categories_sizes":[],"default_left":[0,0,0,0,0,0,0,0,0,0,0,0,0,0,0,0,0,0,0,0,0,0,0,0,0,0,0,0,0,0,0,0,0,0,0,0,0,0,0,0,0,0,0,0,0,0,0,0,0,0,0,0,0,0,0,0,0,0,0,0,0,0,0,0,0,0,0,0,0,0,0,0,0,0,0,0,0,0,0,0,0,0,0,0,0,0,0,0,0,0,0,0,0,0,0,0,0,0,0,0,0,0,0,0,0,0,0,0,0,0,0,0,0,0,0,0,0,0,0,0,0],"id":14,"left_children":[1,3,5,7,9,11,13,15,17,19,21,23,25,27,29,31,33,35,37,39,41,43,45,47,49,51,53,55,57,59,61,63,65,67,69,71,73,75,77,79,81,-1,-1,83,85,87,89,91,93,95,97,99,101,-1,103,105,107,109,111,113,115,117,119,-1,-1,-1,-1,-1,-1,-1,-1,-1,-1,-1,-1,-1,-1,-1,-1,-1,-1,-1,-1,-1,-1,-1,-1,-1,-1,-1,-1,-1,-1,-1,-1,-1,-1,-1,-1,-1,-1,-1,-1,-1,-1,-1,-1,-1,-1,-1,-1,-1,-1,-1,-1,-1,-1,-1,-1,-1,-1],"loss_changes":[2.4905735E3,2.570791E2,1.0263032E3,2.6037183E2,8.6356285E1,8.015176E2,7.407466E2,6.992383E1,2.2555518E2,1.3815632E1,1.9789276E1,8.483605E2,2.54896E2,3.0674908E2,3.2766064E2,7.788952E0,4.3506325E1,1.4404907E2,1.4622327E2,4.9022655E0,5.9949555E0,2.0338991E1,3.384819E1,1.5335476E3,1.435405E3,1.45624E2,1.20908936E2,1.1639783E2,3.3283197E2,4.23125E2,7.256384E1,2.9787865E0,1.2904816E0,1.2922428E1,3.168478E1,9.80426E1,4.0673462E2,3.4776672E1,1.7320262E2,1.1636124E0,1.3275952E0,0E0,0E0,4.8763885E0,2.7849617E0,2.9288315E1,1.8453615E1,4.0286145E2,6.907092E1,7.4813354E2,1.6830378E3,6.8414246E1,6.331903E1,0E0,5.6840454E1,6.352324E1,1.4156494E0,2.2841615E2,1.17696686E2,1.4929437E2,9.4705444E1,1.5252289E1,8.7375244E1,0E0,0E0,0E0,0E0,0E0,0E0,0E0,0E0,0E0,0E0,0E0,0E0,0E0,0E0,0E0,0E0,0E0,0E0,0E0,0E0,0E0,0E0,0E0,0E0,0E0,0E0,0E0,0E0,0E0,0E0,0E0,0E0,0E0,0E0,0E0,0E0,0E0,0E0,0E0,0E0,0E0,0E0,0E0,0E0,0E0,0E0,0E0,0E0,0E0,0E0,0E0,0E0,0E0,0E0,0E0,0E0,0E0,0E0],"parents":[2147483647,0,0,1,1,2,2,3,3,4,4,5,5,6,6,7,7,8,8,9,9,10,10,11,11,12,12,13,13,14,14,15,15,16,16,17,17,18,18,19,19,20,20,21,21,22,22,23,23,24,24,25,25,26,26,27,27,28,28,29,29,30,30,31,31,32,32,33,33,34,34,35,35,36,36,37,37,38,38,39,39,40,40,43,43,44,44,45,45,46,46,47,47,48,48,49,49,50,50,51,51,52,52,54,54,55,55,56,56,57,57,58,58,59,59,60,60,61,61,62,62],"right_children":[2,4,6,8,10,12,14,16,18,20,22,24,26,28,30,32,34,36,38,40,42,44,46,48,50,52,54,56,58,60,62,64,66,68,70,72,74,76,78,80,82,-1,-1,84,86,88,90,92,94,96,98,100,102,-1,104,106,108,110,112,114,116,118,120,-1,-1,-1,-1,-1,-1,-1,-1,-1,-1,-1,-1,-1,-1,-1,-1,-1,-1,-1,-1,-1,-1,-1,-1,-1,-1,-1,-1,-1,-1,-1,-1,-1,-1,-1,-1,-1,-1,-1,-1,-1,-1,-1,-1,-1,-1,-1,-1,-1,-1,-1,-1,-1,-1,-1,-1,-1,-1],"split_conditions":[1.5E1,1.04E2,1.11E2,5.8E1,6E0,7.6E1,5.1E1,4E0,8.6E1,7.1E1,9E0,6.6E1,1E0,2.4E1,9.3E1,2E0,4.6E1,1E0,3.89E1,3.84E1,3E0,9.5E1,4.02E1,1E0,7.9E1,1.06E2,6.7E1,7.7E1,1.18E2,1.13E2,6.1E1,8.5E1,4.9E1,2.8E1,2.5E1,7.3E1,7.5E1,6.7E1,1E0,2.2E1,1.19E2,-2.1596676E-1,4.394993E-1,1.12E2,1.06E2,9.5E1,8.7E1,4.8E1,3E1,1E0,1E0,6.4E1,6.1E1,-9.931992E-1,8.7E1,2E1,1.15E2,1.01E2,1.25E2,7.6E1,5.8E1,9.4E1,2.7E1,-2.5821674E-1,-5.60985E-1,-7.383294E-2,-1.6816631E-1,1.8129161E-1,5.811236E-1,-1.055331E-1,7.531178E-2,-1.4347972E-1,-3.1337407E-1,-6.0814816E-1,-2.0782894E-1,-3.181117E-1,-1.4657426E-2,-1.0054011E0,-1.079643E-2,-2.4284149E-2,-3.8846853E-1,-1.3378862E-1,1.3416882E-1,2.1342817E-1,4.7043213E-1,4.0513802E-2,-4.8236534E-1,7.2249806E-1,2.3935029E-1,-6.560856E-1,1.9226384E-1,3.7669328E-1,6.814115E-2,-1.8341963E0,3.7687227E-1,-7.611731E-2,-5.0920117E-1,-1.0337471E0,1.964486E-1,3.7958267E-1,-1.978666E-1,1.4719468E0,4.731374E-1,1.2999562E0,8.189699E-1,-1.01392366E-1,8.3203226E-1,1.7564505E0,7.0045936E-1,4.8665542E-2,1.2068849E0,8.7592334E-1,2.9483263E0,1.2991631E-1,1.4246318E0,1.8160886E0,1.0196813E0,1.9457245E-2,1.2429764E0,1.1574082E0,2.6776505E0],"split_indices":[3,2,4,2,3,1,1,3,2,1,3,2,0,3,2,3,2,0,5,5,3,4,5,0,2,4,2,2,4,4,1,4,2,1,1,2,2,1,0,1,2,0,0,2,2,4,4,1,3,0,0,2,2,0,2,3,4,2,4,1,2,2,3,0,0,0,0,0,0,0,0,0,0,0,0,0,0,0,0,0,0,0,0,0,0,0,0,0,0,0,0,0,0,0,0,0,0,0,0,0,0,0,0,0,0,0,0,0,0,0,0,0,0,0,0,0,0,0,0,0,0],"split_type":[0,0,0,0,0,0,0,0,0,0,0,0,0,0,0,0,0,0,0,0,0,0,0,0,0,0,0,0,0,0,0,0,0,0,0,0,0,0,0,0,0,0,0,0,0,0,0,0,0,0,0,0,0,0,0,0,0,0,0,0,0,0,0,0,0,0,0,0,0,0,0,0,0,0,0,0,0,0,0,0,0,0,0,0,0,0,0,0,0,0,0,0,0,0,0,0,0,0,0,0,0,0,0,0,0,0,0,0,0,0,0,0,0,0,0,0,0,0,0,0,0],"sum_hessian":[1.2E4,5.554E3,6.446E3,5.4E3,1.54E2,5.767E3,6.79E2,7E2,4.7E3,4.1E1,1.13E2,5.559E3,2.08E2,4.66E2,2.13E2,1.25E2,5.75E2,3.373E3,1.327E3,3.6E1,5E0,4.7E1,6.6E1,1.772E3,3.787E3,9.7E1,1.11E2,5.3E1,4.13E2,1.75E2,3.8E1,1.9E1,1.06E2,3.1E1,5.44E2,2.098E3,1.275E3,2.69E2,1.058E3,1.1E1,2.5E1,1E0,4E0,4.3E1,4E0,5.5E1,1.1E1,1.739E3,3.3E1,1.538E3,2.249E3,7.2E1,2.5E1,2E0,1.09E2,3.9E1,1.4E1,3.81E2,3.2E1,8.4E1,9.1E1,1.8E1,2E1,1.4E1,5E0,1.8E1,8.8E1,1.5E1,1.6E1,1.08E2,4.36E2,1.726E3,3.72E2,2.98E2,9.77E2,2.29E2,4E1,1.5E1,1.043E3,1E0,1E1,2.4E1,1E0,3.4E1,9E0,1E0,3E0,3.7E1,1.8E1,2E0,9E0,1.175E3,5.64E2,3.2E1,1E0,9.68E2,5.7E2,1.04E2,2.145E3,3.5E1,3.7E1,1E1,1.5E1,4.3E1,6.6E1,8E0,3.1E1,1.2E1,2E0,3.66E2,1.5E1,3E1,2E0,7.6E1,8E0,1.9E1,7.2E1,1E0,1.7E1,8E0,1.2E1],"tree_param":{"num_deleted":"0","num_feature":"6","num_nodes":"121","size_leaf_vector":"1"}},{"base_weights":[7.2993594E-3,-2.0335108E-1,6.0905874E-1,-4.2415753E-1,-1.0201487E-2,4.1611764E-1,1.4650975E0,-7.243425E-2,-7.865193E-1,-2.5000614E-1,3.1013343E-1,3.259891E-1,2.1555142E0,1.1626881E0,2.8981977E0,-5.163343E-1,1.503584E-1,-1.8222318E0,-4.9861753E-1,4.5435137E-1,-3.8323683E-1,-2.8102276E-1,6.2464786E-1,8.263117E-1,-2.2885522E-2,1.7455981E0,5.0451937E0,-6.685357E-2,1.5843352E0,2.3182013E0,5.218277E0,-7.2333556E-1,1.18343815E-1,-1.5609694E-1,5.8547705E-1,-2.9613147E0,-1.4336445E0,-6.476393E-1,1.6007169E-1,2.1877372E-1,1.4571978E0,-4.1756865E-1,1.3724949E0,-3.919438E-1,7.0114225E-1,-1.784058E0,7.582873E-1,9.715291E-1,-3.867551E0,-1.7129748E0,3.6111313E-1,1.9796677E0,-5.6227666E-1,5.6134725E0,2.7859406E0,2.4092996E0,-9.0048283E-1,2.4921525E0,7.7432454E-1,5.352002E0,1.8646429E0,2.1782162E0,6.453827E0,-1.7882721E-1,-5.376E-1,2.6291293E-1,-1.0935076E-1,-1.9562022E-1,-1.6088761E-2,2.200393E-1,-2.793804E-1,-2.8005302E-1,-1.0783377E0,-3.2615596E-1,-6.0950315E-1,-2.564223E-1,-7.607475E-2,-2.2959547E-1,1.1519206E-1,3.3414912E-1,1.4609878E-2,5.47766E-1,1.6306567E-1,-6.54224E-2,-2.0479253E-1,2.5847268E-1,1.0691806E0,-2.1772058E-1,-5.8208097E-2,-5.0136524E-1,2.4855268E-1,-7.8466505E-2,-6.283648E-1,5.4284494E-2,3.347745E-1,4.8445493E-1,1.3966237E-1,8.630448E-1,-1.2597948E0,2.2732686E-1,-6.2076503E-1,-3.7149608E-1,2.5189385E-1,5.1368165E-1,1.2035364E0,6.5387696E-1,-7.3212826E-1,3.872818E-1,1.7749897E0,2.2159196E-1,9.3393177E-1,1.4510277E-1,1.5115026E0,7.128837E-2,-4.5343074E-1,5.329377E-1,1.1180812E0,-6.0426183E-2,6.6447455E-1,2.2218056E0,8.244965E-1,8.0377805E-1,3.7131883E-2,-3.663643E-1,8.844971E-1,6.841675E-1,2.101584E0],"categories":[],"categories_nodes":[],"categories_segments":[],"categories_sizes":[],"default_left":[0,0,0,0,0,0,0,0,0,0,0,0,0,0,0,0,0,0,0,0,0,0,0,0,0,0,0,0,0,0,0,0,0,0,0,0,0,0,0,0,0,0,0,0,0,0,0,0,0,0,0,0,0,0,0,0,0,0,0,0,0,0,0,0,0,0,0,0,0,0,0,0,0,0,0,0,0,0,0,0,0,0,0,0,0,0,0,0,0,0,0,0,0,0,0,0,0,0,0,0,0,0,0,0,0,0,0,0,0,0,0,0,0,0,0,0,0,0,0,0,0,0,0,0,0,0,0],"id":15,"left_children":[1,3,5,7,9,11,13,15,17,19,21,23,25,27,29,31,33,35,37,39,41,43,45,47,49,51,53,55,57,59,61,63,65,67,69,71,73,75,77,79,81,83,85,87,89,91,93,95,97,99,101,103,105,107,109,111,113,115,117,119,121,123,125,-1,-1,-1,-1,-1,-1,-1,-1,-1,-1,-1,-1,-1,-1,-1,-1,-1,-1,-1,-1,-1,-1,-1,-1,-1,-1,-1,-1,-1,-1,-1,-1,-1,-1,-1,-1,-1,-1,-1,-1,-1,-1,-1,-1,-1,-1,-1,-1,-1,-1,-1,-1,-1,-1,-1,-1,-1,-1,-1,-1,-1,-1,-1,-1],"loss_changes":[1.5213811E3,3.791424E2,5.133838E2,5.2861017E2,3.6442438E2,3.9764813E2,2.4452527E2,2.0835612E2,6.0828015E2,2.5476756E2,3.7779358E2,4.2190598E2,1.3925891E2,2.4584302E2,1.2112109E2,9.257654E1,1.8717363E2,1.9228369E2,1.5715811E2,1.0174043E2,1.3812631E2,7.718841E1,4.281897E2,6.8061664E2,9.2543225E2,6.1075684E1,3.6194763E0,2.5400114E2,2.5764594E2,1.0147693E2,